68 128
21 -0.066474 -0.404074 -0.114000 -0.161535 -0.212428 0.078649 0.194751 0.025692 0.088556 -0.074058 0.029636 0.381264 0.094927 0.063044 0.041049 -0.072681 -0.261010 -0.095395 0.037147 0.088460 0.103296 -0.081121 -0.157934 0.447199 0.259356 -0.280763 -0.252108 -0.335836 -0.258243 -0.313569 -0.021442 -0.076129 0.031012 -0.252438 -0.174392 -0.067412 -0.026142 0.162829 0.014812 -0.087458 -0.059877 0.100498 0.209927 -0.137608 -0.148467 0.313373 0.065265 -0.133429 -0.042453 -0.070557 -0.114206 0.263044 0.192818 -0.260677 0.157790 -0.257207 -0.169071 -0.342234 -0.061781 -0.106508 0.124384 -0.454940 0.181414 0.060876 -0.070712 -0.017558 -0.095254 -0.139003 0.136722 -0.054256 -0.093666 0.007360 0.159059 -0.161266 0.177109 -0.149535 0.124453 -0.076580 -0.194303 -0.088203 0.034300 -0.101208 -0.210402 -0.333155 -0.239838 -0.000775 0.020465 -0.177270 0.073329 -0.023932 0.280073 0.071142 0.112351 0.352160 -0.083086 0.277605 0.100831 -0.159105 -0.008654 0.039290 -0.233759 0.066777 -0.028848 0.011486 -0.154217 0.102252 -0.109798 -0.004930 0.061022 0.231834 -0.087141 0.232185 -0.011504 -0.339975 -0.069887 0.111365 -0.102078 0.152704 -0.151305 0.265450 -0.122869 0.236664 -0.115337 -0.237901 -0.170537 0.201984 -0.027458 0.143613
66 -0.041683 -0.422485 -0.153863 -0.198763 -0.214125 0.081174 0.259642 0.063046 0.167322 -0.099846 -0.057798 0.326574 0.119512 0.060945 0.067696 -0.097436 -0.240488 -0.114093 -0.014489 0.174788 0.120736 -0.028886 -0.135902 0.389373 0.290121 -0.286147 -0.292112 -0.274297 -0.235385 -0.323281 -0.006947 -0.109259 0.027855 -0.285235 -0.112112 -0.012726 0.025178 0.097514 -0.016886 -0.034315 -0.091076 0.143007 0.191719 -0.085744 -0.020759 0.367155 0.047879 -0.153939 -0.113397 0.000758 0.029635 0.294504 0.199390 -0.177283 0.134252 -0.246410 -0.234367 -0.285480 -0.048754 -0.136145 0.114551 -0.410267 0.153858 0.016250 -0.077134 -0.065330 -0.076862 -0.094158 0.100111 -0.026244 -0.065511 0.018199 0.086935 -0.121297 0.180601 -0.143112 0.102930 -0.068021 -0.239005 -0.053310 -0.005316 -0.080806 -0.172194 -0.259425 -0.186952 -0.036077 -0.014906 -0.127986 0.080557 0.001454 0.302039 0.095060 0.124814 0.287061 -0.051479 0.251180 0.056577 -0.256853 0.052032 -0.027060 -0.200974 0.051405 -0.107045 0.001815 -0.202668 0.078808 -0.053014 0.080075 0.038736 0.168839 -0.084663 0.172463 -0.030933 -0.286193 -0.046129 0.096096 -0.025990 0.090066 -0.100170 0.224136 -0.058603 0.167434 -0.031891 -0.180826 -0.118958 0.137458 -0.007973 0.191566
46 -0.037547 -0.418251 -0.138044 -0.142193 -0.090679 0.050001 0.189030 0.072238 0.085947 -0.130688 0.024378 0.403349 0.136581 0.029089 0.016099 -0.112144 -0.289846 -0.039187 0.055537 0.143272 0.057093 -0.071592 -0.060164 0.333550 0.209283 -0.197227 -0.328809 -0.313011 -0.209736 -0.215494 0.003991 -0.027174 0.012869 -0.220404 -0.165022 -0.045797 0.013299 0.089279 0.001856 -0.019252 -0.113134 0.093403 0.239161 -0.137614 -0.125223 0.382132 0.016651 -0.153050 -0.123008 -0.025192 -0.069485 0.342613 0.228055 -0.191455 0.145946 -0.297271 -0.179578 -0.302569 -0.098683 -0.159298 0.200553 -0.544656 0.164978 0.104965 -0.048240 -0.084962 -0.141927 -0.112241 0.147177 -0.063904 -0.037905 -0.016683 0.100558 -0.113310 0.179228 -0.146204 0.159352 -0.000076 -0.199374 0.006281 0.014248 -0.164282 -0.258151 -0.287712 -0.102263 0.048604 0.052954 -0.089835 0.125123 0.050329 0.261069 0.100074 0.097734 0.297018 -0.073215 0.339685 0.069846 -0.089028 -0.024633 -0.045791 -0.178795 0.015379 -0.033313 0.000959 -0.146141 0.136547 -0.097666 0.075963 0.075578 0.206785 -0.094584 0.161448 -0.018666 -0.331889 -0.044978 0.090977 -0.030154 0.080906 -0.135679 0.283428 -0.140242 0.202632 -0.084827 -0.145169 -0.037042 0.162061 -0.071041 0.141015
23 -0.022676 -0.364392 -0.197132 -0.110602 -0.137402 0.100601 0.147075 0.024653 0.058822 -0.126454 0.077191 0.276043 0.076816 0.094847 0.010621 -0.061761 -0.241580 -0.036058 0.060745 0.090986 0.018075 -0.061436 -0.146839 0.375709 0.153675 -0.175583 -0.306577 -0.303280 -0.220756 -0.144881 0.006762 -0.055510 0.020822 -0.146319 -0.216177 -0.033783 0.047479 0.088864 -0.047717 -0.054701 -0.106459 0.044649 0.241310 -0.130903 -0.126237 0.304390 0.017908 -0.148690 -0.036443 -0.119416 -0.092915 0.250998 0.157331 -0.164366 0.117531 -0.239802 -0.173379 -0.278642 -0.075438 -0.088240 0.124930 -0.438295 0.250979 0.098211 -0.072694 -0.065460 -0.136199 -0.070399 0.068924 -0.012567 0.025793 0.017132 0.173680 -0.149038 0.144873 -0.262981 0.045319 -0.084599 -0.097159 -0.001680 0.026385 -0.122487 -0.195950 -0.336857 -0.199165 -0.008299 -0.082437 -0.100683 0.017210 -0.034678 0.266882 0.142906 0.130884 0.436284 -0.068620 0.327783 0.062758 -0.093201 0.000222 0.036461 -0.227370 0.063857 -0.079890 -0.029121 -0.184196 0.184975 0.007076 0.191365 0.055449 0.237861 -0.058512 0.108338 -0.015905 -0.355617 -0.099725 0.112475 -0.075560 0.086328 -0.109046 0.295574 -0.078685 0.142115 -0.062332 -0.272990 -0.115479 0.227588 0.046717 0.164162
19 -0.016705 -0.359436 -0.079955 -0.183320 -0.173403 0.106957 0.210061 0.022548 0.087550 -0.076211 -0.051431 0.352738 0.145273 0.000424 0.036993 -0.081336 -0.260122 -0.076884 0.035358 0.097472 0.075248 -0.029720 -0.110155 0.387630 0.237495 -0.211284 -0.228786 -0.268795 -0.209199 -0.251409 -0.016820 -0.085303 0.028139 -0.322190 -0.188039 -0.028811 0.034869 0.124464 0.052768 -0.115339 -0.061141 0.106944 0.266031 -0.151333 -0.094787 0.378381 0.055694 -0.174004 -0.093432 -0.044121 -0.031801 0.362837 0.239823 -0.234281 0.136316 -0.261525 -0.239044 -0.434502 -0.097381 -0.042736 0.162899 -0.578523 0.147793 0.092085 -0.093475 -0.023037 -0.108503 -0.081403 0.081076 -0.050833 -0.046617 -0.019060 0.129523 -0.188933 0.204057 -0.156118 0.212808 -0.101254 -0.252133 0.002323 -0.028799 -0.125294 -0.211625 -0.285617 -0.208377 0.006033 0.032524 -0.159019 0.123586 -0.049283 0.318728 0.038442 0.135321 0.278122 -0.078259 0.249484 0.060642 -0.223055 0.025193 0.012407 -0.229920 0.032940 -0.028783 0.062115 -0.152571 0.111848 -0.081803 0.059650 0.031972 0.174118 -0.101119 0.147306 -0.076341 -0.288311 -0.063391 0.055719 -0.063952 0.117591 -0.096781 0.206873 -0.077805 0.166069 -0.095619 -0.147237 -0.090423 0.209182 -0.047678 0.147560
16 -0.005529 -0.401974 -0.173176 -0.126687 -0.038100 0.016168 0.186280 0.084495 0.141244 -0.069511 0.042952 0.360790 0.120119 0.019423 0.095519 -0.141017 -0.292702 -0.091535 0.052308 0.097979 0.095144 -0.032269 -0.060522 0.345365 0.264880 -0.234138 -0.347345 -0.342901 -0.244323 -0.194669 0.030316 -0.047850 -0.026362 -0.250221 -0.165922 0.001115 0.075268 0.126519 -0.037488 -0.074919 -0.095728 0.122395 0.251856 -0.149589 -0.110232 0.328784 0.072636 -0.153944 -0.108942 -0.039147 0.006813 0.311094 0.210911 -0.180245 0.068742 -0.267994 -0.193279 -0.364183 -0.078937 -0.109515 0.161825 -0.448585 0.051425 0.095034 -0.084488 -0.047735 -0.039586 -0.066154 0.076314 0.006476 -0.062024 0.022923 0.072358 -0.132421 0.102605 -0.055130 0.147953 -0.078997 -0.151891 -0.017823 0.049475 -0.052021 -0.161563 -0.189429 -0.144685 0.016467 -0.010722 -0.129309 0.103414 -0.079294 0.168965 0.125457 0.060034 0.236196 0.025152 0.203286 0.095608 -0.214698 0.044978 -0.032708 -0.268225 0.046987 -0.037220 0.088749 -0.159882 0.064889 -0.050828 0.093650 0.063068 0.164601 -0.074841 0.158820 -0.049239 -0.208809 -0.042257 0.026247 -0.091761 0.086054 -0.087195 0.150001 -0.019499 0.141728 -0.100290 -0.137075 -0.129437 0.187127 0.015521 0.095841
15 -0.033564 -0.431426 -0.046497 -0.177341 -0.196465 0.121417 0.178212 -0.000750 0.115145 -0.092412 -0.070986 0.337623 0.182691 -0.031875 -0.009674 -0.107061 -0.289880 -0.068451 0.044393 0.111156 0.126589 -0.028648 -0.053387 0.354053 0.157752 -0.097176 -0.218873 -0.242368 -0.186741 -0.211397 -0.054348 -0.071336 -0.001194 -0.322622 -0.186909 -0.074331 0.060006 0.144023 0.046772 -0.114368 -0.069530 0.163050 0.284729 -0.072755 -0.067237 0.431924 0.037553 -0.205909 -0.035137 -0.050478 -0.027226 0.316085 0.222172 -0.200996 0.177797 -0.236253 -0.278034 -0.349914 -0.068928 -0.103024 0.119416 -0.515730 0.258389 0.042903 -0.119198 -0.050306 -0.130529 -0.096255 0.084144 -0.037037 -0.018250 -0.045493 0.131894 -0.184748 0.190924 -0.199814 0.171053 -0.159919 -0.237730 -0.067924 -0.012599 -0.108211 -0.185821 -0.340262 -0.275981 -0.063556 -0.051012 -0.148338 0.120756 -0.049307 0.340189 0.103646 0.165882 0.393069 -0.004503 0.253839 0.041373 -0.288938 0.040806 0.019851 -0.253711 0.075778 -0.101926 0.026833 -0.212198 0.120058 -0.037628 0.117575 0.010556 0.201637 -0.104115 0.181730 -0.039614 -0.368513 -0.073248 0.109882 -0.053771 0.152068 -0.152267 0.261063 -0.060988 0.154867 -0.021029 -0.249056 -0.123241 0.235831 -0.020543 0.220990
47 -0.024525 -0.408346 -0.097695 -0.156537 -0.195502 0.132823 0.223872 0.076260 0.010726 -0.103485 -0.016027 0.395252 0.217419 0.034464 -0.012097 -0.060692 -0.265580 -0.015558 0.044682 0.195373 0.061636 -0.070549 -0.087925 0.435092 0.254668 -0.249563 -0.332346 -0.309162 -0.241067 -0.264201 -0.020928 -0.080714 -0.012482 -0.307936 -0.156230 -0.037366 0.016223 0.123617 -0.020789 -0.099919 -0.031319 0.102432 0.200711 -0.133156 -0.017824 0.371869 0.020061 -0.179846 -0.135717 -0.019782 0.050573 0.284581 0.196047 -0.261073 0.155072 -0.221411 -0.199754 -0.358099 -0.078079 -0.105546 0.153020 -0.518685 0.143123 0.042585 -0.058144 -0.045203 -0.076561 -0.128155 0.123023 -0.002162 -0.090184 0.028180 0.099214 -0.117376 0.189426 -0.126466 0.142818 0.021204 -0.307205 0.000372 -0.022236 -0.112911 -0.222952 -0.288549 -0.146398 0.057328 0.006225 -0.159633 0.077251 -0.013435 0.348863 0.034369 0.146724 0.245363 -0.075511 0.304667 -0.011425 -0.202828 0.066215 -0.022244 -0.236793 0.014629 -0.050427 0.051837 -0.165393 0.057654 -0.106394 0.059372 0.101798 0.179363 -0.083639 0.151678 -0.069807 -0.297500 -0.029828 0.009328 -0.052998 0.035370 -0.095192 0.237425 -0.072223 0.164836 -0.054826 -0.152964 -0.079606 0.133485 -0.038152 0.127742
64 -0.067298 -0.376853 -0.091815 -0.161331 -0.193640 0.118792 0.211696 0.073302 0.094773 -0.150218 -0.019552 0.296552 0.121119 0.097132 -0.016638 -0.046117 -0.247062 -0.013484 0.040866 0.095310 0.011349 -0.106385 -0.119483 0.327098 0.142839 -0.151262 -0.253694 -0.230005 -0.144866 -0.224278 -0.006883 -0.054328 0.023027 -0.287381 -0.205145 -0.044916 0.099824 0.094962 0.021771 -0.100852 -0.058348 0.101606 0.267822 -0.123540 -0.097865 0.363259 0.092358 -0.186802 -0.009621 -0.071630 -0.024313 0.272957 0.252381 -0.168594 0.156440 -0.227975 -0.164733 -0.340366 -0.082370 -0.167430 0.129102 -0.477994 0.188613 0.046922 -0.075683 -0.051014 -0.194166 -0.102688 0.058340 -0.040264 0.004064 -0.065233 0.150449 -0.142231 0.237320 -0.138413 0.079778 -0.119069 -0.198513 -0.031930 0.036122 -0.150897 -0.232043 -0.297829 -0.194557 -0.015850 0.037261 -0.157426 0.103958 -0.019610 0.303594 0.161421 0.139569 0.381979 -0.097119 0.317303 0.053754 -0.192281 -0.001757 0.025427 -0.202034 0.039363 -0.053511 -0.009418 -0.158436 0.044341 -0.051902 0.078517 -0.020767 0.160031 -0.072021 0.155280 0.041426 -0.280856 -0.114810 0.066234 -0.104906 0.138245 -0.117326 0.206411 -0.113580 0.134232 -0.025480 -0.225241 -0.071417 0.161973 0.065520 0.159736
61 -0.037163 -0.428747 -0.117434 -0.209328 -0.091837 0.076186 0.146154 0.037571 0.127555 -0.164181 -0.066951 0.418689 0.209358 -0.055530 -0.057855 -0.153509 -0.288931 -0.032027 0.076323 0.127195 0.073939 -0.029881 0.003106 0.264620 0.161712 -0.110357 -0.323937 -0.272795 -0.192882 -0.199288 -0.009618 -0.056057 -0.006129 -0.262148 -0.144244 -0.031504 0.036384 0.056343 0.054672 -0.057312 -0.104194 0.086478 0.259778 -0.085278 -0.117204 0.409701 0.025398 -0.162061 -0.093032 -0.022477 -0.079837 0.329758 0.218295 -0.184571 0.120494 -0.294062 -0.264660 -0.315444 -0.105577 -0.112792 0.113472 -0.517878 0.165956 0.067799 -0.078005 -0.098114 -0.086683 -0.100980 0.131186 -0.040850 -0.064445 -0.036018 0.126614 -0.143723 0.157189 -0.210796 0.174598 -0.096854 -0.221051 -0.096026 0.002352 -0.124846 -0.167746 -0.294076 -0.200423 -0.036659 -0.042211 -0.102014 0.089689 0.013172 0.242428 0.029001 0.118253 0.309632 -0.021867 0.228273 0.088635 -0.217699 -0.014561 -0.004009 -0.187586 0.026962 -0.023430 -0.015360 -0.188561 0.126710 -0.100472 0.054585 0.015367 0.206362 -0.131932 0.161509 -0.037515 -0.370874 -0.067360 0.115240 -0.053058 0.136063 -0.185173 0.269583 -0.124873 0.219081 -0.096127 -0.147818 -0.056313 0.218629 -0.132699 0.195238
40 0.048237 -0.158486 -0.118322 0.006574 0.265046 -0.093886 -0.301171 -0.128127 0.202337 -0.115544 0.097618 0.204567 0.100210 -0.197037 -0.026043 -0.193260 -0.262989 -0.023580 0.120842 -0.090062 0.036151 0.038444 0.160958 0.016775 -0.063559 0.269449 -0.088708 -0.215058 -0.086745 0.000884 -0.105347 0.182908 -0.183358 0.088110 0.319993 -0.164872 -0.162136 0.250385 -0.049451 0.104944 -0.048469 -0.082257 0.022402 0.163226 -0.227307 0.041369 -0.174854 -0.034302 0.257050 -0.063922 -0.588050 -0.039688 0.000254 0.126376 0.107586 -0.181481 0.114372 0.040220 0.017106 -0.262638 0.187328 -0.050414 0.011377 -0.006491 -0.111644 0.072059 0.030652 -0.205021 0.233470 -0.023477 -0.208865 0.194174 -0.042174 -0.060317 0.306408 0.070141 0.113821 -0.012780 -0.155102 0.002955 -0.120209 0.026940 -0.023463 -0.180134 -0.195647 -0.091140 0.182861 -0.159321 -0.071353 0.020001 0.230713 -0.309777 0.074307 -0.129391 -0.037243 0.025569 -0.127627 -0.282616 0.288748 -0.000716 -0.150287 -0.132933 0.044069 0.127377 -0.074486 0.118110 0.112580 0.093953 -0.126592 -0.276731 -0.214982 -0.097159 -0.159333 0.155341 -0.021180 -0.235911 -0.049833 -0.152443 0.137435 -0.176062 0.027027 -0.052685 -0.034411 -0.306602 -0.174544 -0.019058 0.069336 -0.178781
18 0.086354 -0.224150 -0.151625 -0.011251 0.200576 -0.069150 -0.110632 -0.029432 0.225286 -0.118704 0.119549 0.208758 0.038577 -0.187012 0.034353 -0.180670 -0.291042 -0.047856 0.056464 -0.073133 0.081147 0.016577 0.137186 0.032427 -0.038012 0.207906 -0.101566 -0.207327 -0.069665 0.124437 0.009569 0.116320 -0.143284 0.153553 0.239329 -0.117383 -0.077114 0.180520 0.005120 0.153762 -0.052409 -0.191184 0.015474 0.141130 -0.299992 -0.001996 -0.165371 -0.058912 0.280089 -0.105044 -0.584470 -0.047322 0.021380 0.193436 0.071684 -0.181891 0.072400 -0.013590 0.020042 -0.187866 0.278414 -0.099717 -0.027466 0.141472 -0.082208 0.050297 -0.008688 -0.189803 0.193430 -0.003552 -0.143490 0.203139 -0.016687 -0.101788 0.335021 0.059691 0.114220 -0.004174 -0.139817 0.101953 -0.109781 -0.001577 -0.099386 -0.152043 -0.210618 0.020635 0.158083 -0.185001 -0.058794 -0.042058 0.270219 -0.290664 0.083948 -0.183122 0.030069 -0.007098 -0.117300 -0.307711 0.329568 -0.090441 -0.215620 -0.208200 0.023102 0.191434 -0.037923 0.079550 0.157719 0.113347 -0.067572 -0.348168 -0.215243 -0.100812 -0.164372 0.151571 0.009845 -0.244933 -0.122015 -0.134030 0.133276 -0.122787 -0.020039 -0.034636 0.022267 -0.272360 -0.175300 0.060153 0.133822 -0.139077
22 0.042305 -0.250721 -0.179752 -0.085926 0.136136 -0.075683 -0.182849 -0.114863 0.231562 -0.178638 0.090670 0.197844 0.020334 -0.124981 0.058816 -0.133201 -0.327861 -0.029100 0.035731 -0.022557 0.129130 0.076505 0.111039 0.064485 -0.086711 0.211407 -0.139470 -0.300647 -0.116727 0.033037 0.031710 0.136031 -0.164500 0.076751 0.260896 -0.157608 -0.090533 0.220131 -0.117843 0.156545 -0.039813 -0.135882 -0.055085 0.122938 -0.175438 0.012077 -0.167891 -0.029702 0.214057 -0.071073 -0.478250 -0.119900 0.011650 0.141015 0.064078 -0.154091 0.089928 0.031836 0.044352 -0.235263 0.197292 -0.001156 0.056954 0.042346 -0.097788 0.098575 0.042795 -0.198285 0.230483 -0.000306 -0.187145 0.217545 -0.023954 -0.061011 0.259182 0.041261 0.115721 0.035151 -0.177970 0.045361 -0.095880 0.024533 -0.050708 -0.193580 -0.189953 0.022958 0.138279 -0.144646 -0.053203 -0.005914 0.324560 -0.253227 0.074005 -0.151276 -0.003678 -0.015552 -0.129196 -0.299957 0.363858 -0.024176 -0.159289 -0.199601 -0.042542 0.168264 -0.045185 0.074869 0.102102 0.083768 0.018250 -0.309344 -0.266651 -0.028119 -0.158092 0.088671 0.034723 -0.211897 0.003512 -0.155063 0.180971 -0.099289 0.025336 -0.012955 0.076357 -0.358281 -0.199223 0.017054 0.089324 -0.148708
29 -0.168206 0.017587 -0.145589 -0.015876 0.241372 -0.037690 0.130270 0.051925 -0.014024 -0.121489 0.322241 0.421742 0.286927 0.189820 -0.320947 -0.282030 -0.109166 0.136783 0.257099 0.157081 -0.232205 -0.248463 -0.008498 -0.113113 -0.045724 0.026981 -0.475197 -0.032584 0.307378 0.234689 0.106559 -0.020823 -0.106268 0.231172 -0.219893 0.023146 0.197875 0.235187 -0.075154 -0.193435 0.016931 -0.091763 0.252042 -0.152295 -0.320919 0.169997 -0.010480 -0.186946 0.126473 -0.351725 -0.520014 -0.070636 0.212256 -0.186583 -0.163688 -0.139448 0.344790 -0.206597 -0.130943 0.084313 0.066933 -0.149286 -0.293445 0.195310 -0.211039 0.247594 -0.103837 0.093011 -0.036089 0.107898 -0.033186 0.158559 -0.072579 -0.235767 0.144326 0.370549 0.294743 -0.049614 0.141725 0.350595 -0.075801 -0.164192 -0.102097 0.175032 0.107736 0.102368 0.478372 -0.119768 0.043256 -0.291074 -0.046809 -0.087987 -0.078309 -0.106219 -0.125529 -0.040783 -0.199090 -0.338266 0.234636 0.207987 -0.455133 0.101876 -0.092502 0.232629 -0.058671 0.077473 0.124262 0.334026 -0.054673 0.275389 0.052288 0.061037 0.077902 -0.088103 -0.267404 -0.071384 -0.079857 0.086795 -0.107969 -0.159710 0.283231 -0.073370 -0.190555 -0.094353 -0.118411 0.195401 0.086128 -0.006676
49 0.069908 -0.156928 -0.071263 0.055578 0.164147 -0.126391 -0.165017 -0.095694 0.207484 -0.087658 0.091369 0.158000 -0.040913 -0.191266 0.071246 -0.130501 -0.218187 -0.057877 -0.011481 -0.106587 0.139517 0.089598 0.105232 -0.031665 -0.060817 0.213269 -0.011774 -0.243059 -0.118975 0.038410 -0.006022 0.108772 -0.101322 0.150112 0.298384 -0.154548 -0.120071 0.200872 -0.040371 0.178913 -0.053436 -0.129847 0.000168 0.152078 -0.283486 -0.011532 -0.160585 -0.053659 0.241431 -0.102008 -0.604602 -0.079700 0.048861 0.122301 0.115248 -0.211890 0.083743 0.031711 0.036569 -0.260749 0.276643 -0.107458 0.050058 0.078835 -0.131696 0.113932 0.037868 -0.233920 0.279067 -0.021059 -0.244357 0.238938 -0.003597 -0.053212 0.331234 0.052969 0.093688 0.045414 -0.199710 0.041468 -0.130732 -0.005477 -0.077758 -0.219146 -0.215425 0.023305 0.251550 -0.153986 -0.042226 0.036775 0.333766 -0.304717 0.051423 -0.169625 -0.049233 0.012811 -0.069556 -0.212397 0.303651 -0.005040 -0.094469 -0.177511 -0.011014 0.121462 -0.002528 0.110667 0.126735 0.023511 -0.023091 -0.211375 -0.230917 -0.032065 -0.080001 0.063901 0.024162 -0.142194 -0.033344 -0.080608 0.140460 -0.070785 -0.005361 0.053263 0.003916 -0.326830 -0.245189 0.002925 0.067564 -0.117717
5 0.133329 0.032753 -0.161526 -0.006973 0.259415 -0.091389 -0.004099 0.039839 0.204768 -0.075614 0.163118 0.021350 -0.027845 -0.108415 0.039308 -0.218331 -0.076930 -0.099801 -0.041391 0.011323 0.126212 0.137545 0.054823 0.040046 0.052669 -0.034027 -0.275115 -0.175765 -0.039554 0.113761 0.120738 -0.059508 -0.148069 -0.050363 0.211287 0.001902 -0.128720 0.173945 -0.195142 0.020834 0.025953 0.138444 -0.031433 -0.101697 -0.069247 0.086676 0.135982 -0.105831 0.152072 -0.002084 -0.239882 0.129113 0.045711 -0.015651 -0.018687 -0.271433 0.251458 -0.008075 0.125809 -0.168514 0.054293 0.178946 -0.084446 -0.057504 -0.060244 0.125871 0.158031 -0.111138 0.097854 -0.062868 -0.107136 0.227915 -0.080350 0.082350 0.355255 0.044055 -0.187634 -0.008848 -0.124873 -0.074302 -0.054739 0.244428 0.053674 -0.096912 -0.175772 -0.199026 0.207363 -0.142504 -0.250701 0.051792 0.205325 -0.004947 0.127621 -0.213629 -0.340346 -0.037093 -0.029796 -0.330627 0.320971 0.223525 -0.227878 0.019092 -0.081550 0.050359 -0.070243 -0.040443 0.017849 -0.065041 0.115532 -0.276187 -0.084671 0.158164 0.020344 0.209165 -0.087103 0.006508 0.050664 -0.140454 0.240666 -0.295267 0.067891 -0.092864 0.041355 -0.298463 -0.310990 -0.041885 0.165249 -0.150770
11 0.101464 -0.046295 -0.180752 0.024193 0.264719 -0.088244 -0.078112 -0.048734 0.221131 -0.126622 0.170705 0.087612 -0.050469 -0.060971 -0.010913 -0.210551 -0.063578 -0.031330 0.032737 -0.031597 0.046735 0.087425 0.002842 -0.030528 -0.030537 0.060477 -0.231548 -0.178550 -0.066009 0.072628 0.060760 0.008349 -0.153385 -0.046524 0.212542 -0.003236 -0.092634 0.199342 -0.245899 -0.051515 0.068796 0.192551 0.019400 -0.088503 -0.102296 0.118326 0.144484 -0.111640 0.282300 -0.028650 -0.339127 0.081092 0.051820 0.062159 0.010240 -0.244346 0.375733 0.044068 0.089647 -0.267255 0.080017 0.188192 -0.001845 -0.087917 -0.125500 0.113708 0.042957 -0.147303 0.085664 -0.159501 -0.112976 0.220911 -0.160204 0.127011 0.369742 0.083791 -0.158348 -0.042899 -0.102230 -0.059017 -0.081680 0.193840 0.076518 -0.012344 -0.103441 -0.233178 0.237314 -0.082426 -0.186799 0.030784 0.152501 -0.011415 0.163227 -0.141198 -0.295994 -0.001127 -0.039198 -0.271152 0.244525 0.167939 -0.167184 0.080430 -0.105505 -0.003825 -0.121483 0.085307 0.114139 0.022981 0.086456 -0.158971 -0.124295 0.120708 -0.001822 0.124656 -0.128037 0.036477 0.067252 -0.148132 0.252336 -0.285626 0.071446 -0.093585 -0.058918 -0.402293 -0.275598 -0.066725 0.092409 -0.171521
53 0.139245 -0.030077 -0.152921 0.015724 0.186308 -0.028779 0.076005 0.060372 0.244891 -0.206227 0.115778 -0.008419 -0.093336 -0.142702 0.010156 -0.183721 0.007554 -0.015022 -0.111334 -0.012627 0.110089 0.162630 -0.038969 -0.067730 -0.007369 0.044102 -0.242295 -0.169035 0.000073 0.110786 0.136720 -0.114830 -0.170171 -0.158621 0.228128 -0.007308 -0.079710 0.067843 -0.238824 0.046388 0.106423 0.173057 -0.032162 -0.123362 -0.036958 0.183887 0.182987 -0.175196 0.211501 -0.012670 -0.100592 0.182367 0.122159 0.080688 0.020389 -0.295711 0.187340 -0.010880 0.161386 -0.139367 0.009595 0.176165 0.091301 -0.097424 -0.131709 0.142874 0.141244 -0.039602 0.000433 -0.207601 -0.054391 0.242270 -0.129604 0.092993 0.382493 -0.053756 -0.131607 -0.086003 -0.192482 -0.087691 -0.113990 0.177532 0.022184 -0.027592 -0.149454 -0.265441 0.221992 -0.022600 -0.172815 0.065143 0.280561 0.037019 0.226922 -0.178558 -0.376444 -0.049298 -0.012202 -0.358770 0.281989 0.275788 -0.120826 0.076798 -0.147531 -0.036606 -0.134701 0.065064 0.120789 0.008254 0.185932 -0.211998 -0.181007 0.178617 0.063493 0.060074 -0.117533 0.094322 0.151636 -0.155994 0.368148 -0.272387 0.109329 -0.062762 0.026035 -0.536143 -0.388236 -0.045386 0.156763 -0.072914
56 -0.215020 -0.013435 -0.147250 -0.073348 0.119793 -0.003618 0.182302 0.052953 -0.036299 -0.125535 0.367602 0.488602 0.318344 0.290122 -0.360795 -0.288691 -0.155846 0.131223 0.234237 0.237856 -0.165548 -0.347049 -0.090633 0.075870 0.021228 -0.062245 -0.541662 -0.060446 0.270489 0.121433 0.079623 -0.045385 -0.082525 0.186316 -0.224169 -0.002826 0.156135 0.232819 -0.067531 -0.207173 0.127319 -0.099768 0.137281 -0.115941 -0.235932 0.038392 -0.005603 -0.084288 0.133679 -0.321570 -0.364969 -0.211654 0.142248 -0.168609 -0.150073 0.022652 0.394270 -0.194822 -0.110742 0.042117 0.029557 -0.032380 -0.270449 0.132937 -0.176315 0.260918 -0.190743 0.067140 -0.018009 0.034607 -0.032427 0.111250 -0.027359 -0.306790 0.111259 0.401257 0.341902 -0.079535 0.123914 0.323229 -0.009762 -0.230901 -0.194375 0.210940 0.088006 0.110171 0.517645 -0.143105 0.164222 -0.257844 -0.045269 -0.000307 -0.040880 -0.052293 -0.116169 0.043398 -0.208736 -0.393445 0.219129 0.167663 -0.490096 0.171726 -0.043757 0.290244 -0.124103 0.063449 0.129341 0.327120 -0.063423 0.273848 -0.015424 0.122421 0.067992 -0.124951 -0.256286 -0.079789 -0.128727 0.088756 -0.080956 -0.169858 0.248378 -0.033535 -0.210637 -0.220849 -0.120883 0.201087 0.111352 0.027037
63 0.069125 0.038400 -0.201044 0.011041 0.188052 -0.075930 0.058356 0.049748 0.201897 -0.110339 0.193621 0.040684 -0.038867 0.008936 0.046976 -0.231245 -0.061696 -0.083086 -0.096737 0.094515 0.144344 0.056054 -0.043359 0.061383 0.100678 -0.085409 -0.310903 -0.177184 -0.033803 0.004615 0.100701 -0.107456 -0.110472 -0.055388 0.286781 -0.039850 -0.188463 0.205342 -0.270106 0.117329 0.011364 0.193147 -0.153339 -0.067486 -0.038552 0.122353 0.085321 -0.034367 0.175682 0.018232 -0.174277 0.079667 0.054840 0.069506 0.059131 -0.254250 0.253643 0.010292 0.192815 -0.275896 0.118873 0.250151 -0.000446 -0.089747 -0.107804 0.108923 0.057404 -0.105300 0.122430 -0.117310 -0.124877 0.255555 -0.122731 0.078366 0.366412 0.038851 -0.194882 -0.005764 -0.177013 -0.079688 -0.089024 0.219242 0.073460 -0.061513 -0.113008 -0.207313 0.225161 -0.100465 -0.157938 0.124359 0.247340 0.029541 0.186020 -0.245932 -0.273449 -0.009050 -0.015494 -0.322943 0.307929 0.122578 -0.134637 0.053137 -0.161849 0.037134 -0.105844 0.061615 0.120764 -0.014220 0.169425 -0.272008 -0.155209 0.153798 -0.020775 0.133806 -0.066465 0.034396 0.128631 -0.195921 0.376083 -0.267851 0.104202 -0.024573 0.058104 -0.420897 -0.336062 -0.096081 0.157784 -0.069654
55 0.125991 -0.066779 -0.177477 0.059739 0.106776 0.023710 0.112076 0.013426 0.135663 -0.153655 0.188924 0.009111 -0.110548 -0.002019 -0.017347 -0.165397 -0.014785 0.018713 -0.065439 -0.007186 0.003899 0.088167 -0.076689 0.008152 -0.024652 0.004089 -0.297742 -0.213181 -0.061604 0.126245 0.140012 -0.098079 -0.090501 -0.153052 0.125000 0.029541 -0.035234 0.095229 -0.268041 -0.070496 0.129198 0.171505 -0.019747 -0.154038 0.014742 0.136105 0.226107 -0.185155 0.236523 -0.043924 -0.160625 0.107470 0.062175 -0.022585 0.057856 -0.191286 0.292113 0.073705 0.130363 -0.093177 -0.043782 0.224254 0.132068 -0.104196 -0.072438 0.112674 0.112508 -0.121405 0.006301 -0.171331 -0.034091 0.263126 -0.132056 0.144715 0.434029 0.043631 -0.266131 -0.027702 -0.067666 -0.038940 -0.025413 0.203461 0.045358 -0.086713 -0.147243 -0.251513 0.243612 -0.056288 -0.269393 0.055041 0.287351 0.045122 0.247608 -0.082776 -0.438620 0.014527 -0.105900 -0.226742 0.274872 0.283801 -0.182814 0.076996 -0.172168 -0.018905 -0.104484 0.041658 0.062484 0.055887 0.175888 -0.180903 -0.078332 0.224707 0.106164 0.071952 -0.167121 0.075680 0.093457 -0.168563 0.291853 -0.241821 0.055902 -0.133682 0.068660 -0.453505 -0.284184 -0.057452 0.224509 -0.137386
31 -0.090277 0.027070 -0.129280 0.024236 0.226725 0.048671 0.034659 0.036707 -0.128359 -0.076253 0.371486 0.415807 0.299900 0.158806 -0.292486 -0.227858 -0.118072 0.161978 0.272921 0.135389 -0.214038 -0.241259 -0.078446 0.072027 -0.003430 -0.030238 -0.392783 -0.040921 0.200033 0.155513 0.015041 -0.062151 -0.091245 0.170590 -0.201685 0.068947 0.113022 0.158303 -0.049516 -0.220446 0.164179 -0.098189 0.154318 -0.207984 -0.198894 0.007989 0.009277 -0.092324 0.091949 -0.283695 -0.323938 -0.089899 0.072142 -0.151227 -0.169852 0.011548 0.387477 -0.174458 -0.072145 0.090976 0.023917 -0.037401 -0.200773 0.096495 -0.177783 0.182863 -0.169835 0.024890 0.005394 0.041962 -0.014106 0.140528 0.001850 -0.262345 0.184647 0.245867 0.316496 -0.031800 0.053206 0.285264 -0.047411 -0.210862 -0.207837 0.048032 0.020210 0.106129 0.388304 -0.199128 0.036135 -0.283955 -0.011557 -0.007856 0.027465 -0.044744 -0.171753 0.092356 -0.166909 -0.387767 0.180719 0.086568 -0.538895 0.132757 -0.070205 0.216920 -0.141208 0.099028 0.074604 0.300977 0.049344 0.255294 0.034883 0.076222 -0.031366 -0.189825 -0.199921 -0.040119 -0.105871 0.064686 -0.172665 -0.086625 0.201388 -0.015856 -0.252010 -0.131260 -0.106593 0.205160 -0.034432 -0.019361
62 0.098988 -0.156268 -0.144345 0.046358 0.245842 -0.123511 -0.220816 -0.102172 0.191935 -0.108567 0.142697 0.181838 0.025908 -0.151348 0.062204 -0.150016 -0.248203 -0.016216 0.069649 -0.110891 0.019331 0.060299 0.097663 0.006396 0.003093 0.175781 -0.180216 -0.271171 -0.116129 0.029693 -0.020297 0.148807 -0.147494 0.085662 0.291096 -0.094247 -0.125384 0.197166 -0.077121 0.175022 -0.094923 -0.050333 -0.007013 0.103709 -0.110385 0.046308 -0.106159 -0.036145 0.118218 -0.011095 -0.359831 0.032421 0.033123 0.098592 0.048748 -0.211427 0.008345 -0.042978 0.051014 -0.283412 0.244207 -0.081838 -0.024784 0.019351 -0.092024 0.081330 0.074320 -0.138869 0.172263 -0.001625 -0.164199 0.187737 -0.071616 0.029937 0.262047 0.125494 0.062528 0.000150 -0.152036 0.073807 -0.064505 0.102378 -0.008766 -0.109224 -0.142759 -0.062738 0.167850 -0.113459 -0.035635 -0.004239 0.206927 -0.105977 0.040555 -0.144448 -0.068776 0.029937 -0.067160 -0.266095 0.324250 0.075350 -0.204063 -0.099342 0.001610 0.183292 -0.064103 0.095234 0.139349 0.113934 -0.038746 -0.236934 -0.227346 -0.040603 -0.114272 0.199420 -0.013985 -0.194441 -0.076850 -0.159194 0.245371 -0.231902 0.061292 -0.076857 -0.044769 -0.337974 -0.229919 -0.012575 0.140434 -0.183272
50 0.133091 0.005809 -0.189271 -0.005374 0.266693 -0.054513 0.002030 -0.000142 0.174972 -0.111005 0.162178 0.066380 -0.049198 -0.127791 0.056253 -0.216057 -0.045204 -0.061113 -0.014749 0.033487 0.116477 0.152878 -0.003313 0.022192 0.050564 -0.051648 -0.318029 -0.180409 -0.042274 0.104572 0.114615 -0.070826 -0.214004 -0.124735 0.143388 0.006472 -0.090131 0.148549 -0.290282 0.008814 0.037305 0.251459 -0.020157 -0.158268 -0.044278 0.244754 0.163172 -0.166868 0.128922 -0.016730 -0.181682 0.202331 0.090286 -0.011714 -0.030494 -0.363356 0.241172 -0.021851 0.131904 -0.148220 0.049050 0.171740 0.017085 -0.063946 -0.086653 0.149664 0.221278 -0.084700 0.051878 -0.194820 -0.096315 0.323625 -0.162915 0.141112 0.323450 -0.002220 -0.158556 -0.021325 -0.127925 -0.044154 -0.106015 0.265535 0.092745 0.005650 -0.112807 -0.238462 0.166438 0.004758 -0.216805 0.045347 0.172159 0.003790 0.172777 -0.277939 -0.362415 -0.067578 -0.015482 -0.239767 0.256372 0.255671 -0.119224 0.058365 -0.111064 0.008469 -0.111826 0.101919 0.114278 0.013278 0.169908 -0.249302 -0.151718 0.117005 -0.048221 0.127515 -0.066599 0.052126 0.121476 -0.197279 0.386693 -0.310181 0.115950 -0.135504 -0.029274 -0.428965 -0.350306 -0.035905 0.140117 -0.152584
13 0.090611 -0.161054 -0.202869 -0.021771 0.189966 -0.064337 -0.153609 -0.038266 0.196064 -0.221066 0.125030 0.060806 0.003609 -0.093675 -0.037313 -0.131823 -0.237744 0.027151 0.008328 -0.075779 0.002931 0.017036 0.115918 -0.045435 -0.148679 0.303447 -0.097212 -0.196918 -0.022195 0.141036 0.015964 0.133213 -0.093544 0.115053 0.266589 -0.092300 -0.117486 0.173768 -0.040256 0.116918 -0.018541 -0.183359 -0.007094 0.082927 -0.234574 -0.063506 -0.111520 -0.027559 0.251120 -0.062797 -0.456902 -0.029326 0.010657 0.172875 0.126733 -0.144572 0.120181 -0.026438 0.044344 -0.219042 0.197780 -0.030237 0.019772 0.061713 -0.132845 0.033260 -0.134272 -0.135315 0.176295 -0.005459 -0.095263 0.132722 -0.017654 -0.100076 0.350911 0.028083 0.047266 -0.027146 -0.112986 0.060676 -0.102433 -0.011440 -0.075990 -0.155304 -0.139474 -0.014881 0.204473 -0.180325 -0.083583 0.012607 0.261829 -0.182930 0.104311 -0.093379 -0.046619 0.056723 -0.086466 -0.302990 0.329169 0.005309 -0.217639 -0.145010 -0.040300 0.103040 -0.069044 0.082770 0.089267 0.099036 0.014692 -0.319608 -0.237103 -0.019682 -0.073408 0.097486 -0.056309 -0.200640 -0.037538 -0.151140 0.181258 -0.138560 -0.017426 0.017759 0.060640 -0.371118 -0.189109 0.014179 0.111516 -0.110080
7 0.123379 -0.088559 -0.225381 -0.034558 0.203202 -0.010623 0.127076 0.063994 0.266412 -0.199415 0.187465 0.021497 -0.115587 -0.066449 0.007426 -0.189288 -0.009496 -0.027205 -0.018695 -0.051967 0.015161 0.033837 -0.076925 0.011227 0.019217 -0.033178 -0.244858 -0.147630 0.025550 0.163153 0.156564 -0.062109 -0.149105 -0.108786 0.184340 0.033048 -0.090334 0.073227 -0.191094 0.005582 0.079002 0.147343 -0.037093 -0.161958 -0.108565 0.157732 0.219741 -0.144967 0.295233 0.009198 -0.244720 0.217712 0.095146 0.070668 0.018132 -0.318341 0.251673 -0.050148 0.155128 -0.145162 0.039095 0.178064 0.067594 -0.023757 -0.044178 0.091175 0.052521 -0.049484 -0.055268 -0.168793 0.039718 0.161446 -0.148311 0.106714 0.382225 -0.039034 -0.224400 -0.096973 -0.076291 -0.060027 -0.073851 0.219181 0.019085 0.005194 -0.130564 -0.256435 0.161413 -0.078844 -0.273798 0.020138 0.167172 0.055226 0.230252 -0.141710 -0.371932 -0.046777 0.003192 -0.252641 0.229806 0.255941 -0.147155 0.093258 -0.133722 -0.038402 -0.065653 0.021319 0.152741 -0.026568 0.130584 -0.216263 -0.085345 0.125588 0.043699 0.166997 -0.157420 0.089299 0.064697 -0.160029 0.304947 -0.307141 0.051778 -0.137161 -0.009867 -0.426931 -0.320778 -0.035911 0.150265 -0.182802
6 0.111911 -0.175811 -0.184583 -0.043598 0.128780 -0.046653 0.187034 0.072539 0.339090 -0.191755 0.108919 0.059485 -0.127444 -0.093920 0.048852 -0.189946 -0.074083 -0.084108 -0.082960 -0.009438 0.144737 0.150132 -0.025502 -0.024408 0.006712 -0.007929 -0.269585 -0.232287 -0.074602 0.144687 0.217164 -0.109504 -0.110730 -0.131637 0.174556 0.019447 -0.001943 0.073541 -0.221935 0.005398 0.066218 0.161939 0.002589 -0.102384 -0.112425 0.133303 0.226351 -0.166545 0.281621 -0.039478 -0.220116 0.118519 0.099453 0.116140 -0.018741 -0.280815 0.266873 0.068154 0.113710 -0.157675 0.036932 0.218879 0.037154 -0.024794 -0.098378 0.097318 0.164295 -0.072665 -0.027494 -0.138299 -0.025333 0.217260 -0.108206 0.158608 0.350131 -0.047975 -0.294152 -0.063491 -0.080982 -0.113076 -0.060267 0.216283 0.089309 0.007453 -0.142756 -0.236434 0.131878 -0.016538 -0.250606 0.029935 0.202817 0.041651 0.173714 -0.136235 -0.286697 -0.130421 -0.019177 -0.309700 0.286306 0.274425 -0.097257 0.029001 -0.158601 -0.026910 -0.067823 0.004687 0.192758 0.037098 0.106972 -0.235457 -0.147390 0.144958 0.133342 0.155742 -0.158956 0.100016 0.051096 -0.110583 0.281019 -0.279203 0.060935 -0.140216 0.057268 -0.477284 -0.327646 -0.034962 0.201204 -0.115247
65 -0.186875 -0.052842 -0.098305 -0.090414 0.184208 0.005548 0.178016 0.118724 0.034656 -0.174256 0.250479 0.381119 0.330527 0.169905 -0.336363 -0.267799 -0.173646 0.149498 0.226401 0.169202 -0.158829 -0.273209 0.047397 -0.030352 -0.076384 0.095692 -0.425434 -0.026459 0.300371 0.235152 0.112347 -0.038187 -0.109276 0.077749 -0.239932 -0.040264 0.231813 0.200592 -0.019086 -0.228275 0.078731 -0.093259 0.276570 -0.120893 -0.328665 0.153241 -0.009188 -0.173574 0.208850 -0.311216 -0.387309 -0.066653 0.241648 -0.098474 -0.094711 -0.072304 0.274865 -0.297277 -0.138353 0.065966 0.080850 -0.210934 -0.264789 0.212663 -0.203864 0.198097 -0.202002 0.110815 -0.062317 0.126345 0.020131 0.018356 -0.024848 -0.326421 0.078551 0.323925 0.353572 -0.148382 0.086237 0.275512 -0.059775 -0.201387 -0.135422 0.189886 0.073684 0.110422 0.394802 -0.149593 0.163428 -0.277452 -0.030579 -0.071575 -0.036451 -0.047701 0.050138 -0.054134 -0.175506 -0.398558 0.221350 0.114677 -0.422018 0.084118 -0.023926 0.278355 -0.038985 -0.000405 0.117885 0.279410 -0.096280 0.199583 0.001802 0.039943 0.073649 -0.080211 -0.226330 -0.144559 -0.099943 0.107690 -0.104500 -0.154229 0.254697 -0.027286 -0.113218 -0.069505 -0.051088 0.209659 0.090939 0.030304
10 -0.153220 -0.005361 -0.167239 -0.122300 0.162006 0.015550 0.076527 0.006632 0.025122 -0.172013 0.272918 0.381418 0.284404 0.222889 -0.301529 -0.201451 -0.177337 0.131408 0.224222 0.156949 -0.214486 -0.259276 -0.030060 0.001360 -0.053086 0.038545 -0.388120 -0.031726 0.251798 0.134821 0.074881 -0.002061 -0.055808 0.110495 -0.214348 0.039917 0.118089 0.272883 -0.024909 -0.209168 0.066026 -0.115273 0.168307 -0.174638 -0.295478 0.106905 -0.014661 -0.059242 0.116848 -0.277081 -0.391771 -0.058475 0.164098 -0.148042 -0.148026 -0.076139 0.358631 -0.341430 -0.132433 0.014772 0.082472 -0.125805 -0.314201 0.164408 -0.230364 0.183033 -0.209989 0.081647 -0.052849 0.111735 -0.001240 0.063643 -0.016608 -0.300913 0.125431 0.287651 0.308790 -0.118871 0.051207 0.276082 -0.063533 -0.174357 -0.127469 0.172425 0.061516 0.118311 0.350506 -0.214458 0.093269 -0.326914 -0.036255 -0.020612 -0.012747 -0.060790 -0.000156 -0.028563 -0.124744 -0.462036 0.216092 0.099926 -0.489766 0.090966 -0.056982 0.276100 -0.097727 0.017960 0.107528 0.285693 -0.049855 0.180494 -0.040737 0.038278 -0.005819 -0.067353 -0.222061 -0.124877 -0.132660 0.102188 -0.096637 -0.188259 0.227308 -0.033896 -0.197060 -0.075207 -0.056119 0.214318 -0.000480 0.011152
58 -0.122657 0.026653 -0.184462 -0.030921 0.242855 0.006746 0.192563 0.113151 -0.029774 -0.120462 0.323324 0.456337 0.383925 0.218709 -0.398012 -0.370755 -0.146209 0.158822 0.235209 0.195934 -0.231380 -0.260255 -0.056834 -0.038086 0.000103 0.014654 -0.531604 -0.070892 0.266796 0.226606 0.115863 -0.172704 -0.105948 0.200768 -0.157229 0.082516 0.235766 0.240718 -0.047096 -0.264589 0.116782 -0.134673 0.270110 -0.130719 -0.275164 0.008481 0.013343 -0.118141 0.141206 -0.361747 -0.324287 -0.177822 0.160850 -0.077706 -0.206828 0.048678 0.386365 -0.234826 -0.121514 0.084919 0.066143 -0.098087 -0.367506 0.150413 -0.294315 0.194260 -0.222095 0.126225 -0.012656 0.177246 -0.029678 0.058288 -0.003771 -0.340406 0.182435 0.306679 0.273555 -0.143567 0.107796 0.261341 -0.084417 -0.235559 -0.115258 0.164107 0.115193 0.098691 0.491037 -0.223521 0.074227 -0.290866 -0.057307 -0.021771 -0.058217 -0.012397 -0.041398 0.007062 -0.188775 -0.475805 0.253594 0.154513 -0.497919 0.159241 -0.085661 0.288322 -0.127252 0.079098 0.182679 0.423218 -0.109665 0.302366 -0.005015 0.020414 0.089218 -0.100302 -0.317081 -0.080402 -0.144073 0.089734 -0.130469 -0.173340 0.317165 -0.042484 -0.224160 -0.144502 -0.074354 0.226141 0.056082 0.062217
20 -0.056033 -0.110389 -0.137188 -0.128047 0.043735 0.026122 -0.147458 -0.070258 0.137447 -0.161338 0.015569 0.110839 0.010295 -0.018818 -0.022543 -0.074045 -0.185189 -0.006325 0.055374 -0.030917 -0.071357 0.005477 0.052582 -0.055584 -0.111826 0.160808 -0.075553 -0.070822 0.045508 -0.008823 -0.037005 0.120952 -0.104750 0.231243 0.051297 -0.064240 0.025041 0.148833 -0.039698 0.119552 -0.132307 -0.255131 0.069712 0.079328 -0.275474 0.109721 -0.174221 -0.103444 0.195643 -0.229455 -0.596580 -0.061272 0.071493 0.104723 -0.078503 -0.171830 0.140558 -0.000044 -0.103680 -0.065641 0.166372 -0.109608 -0.039122 0.130010 -0.127162 0.120306 0.043811 -0.173613 0.119627 -0.027802 -0.155130 0.289815 0.051861 -0.134922 0.374285 -0.034001 0.107876 -0.012061 -0.134335 0.145913 -0.104557 -0.066507 -0.125135 -0.241944 -0.220222 0.006364 0.119943 -0.149505 -0.132637 -0.079438 0.385555 -0.292666 0.123501 -0.091430 -0.117517 0.032327 -0.156674 -0.257776 0.280430 -0.032280 -0.150117 -0.287537 0.005420 0.113143 -0.078055 0.078158 0.064363 0.193931 -0.093687 -0.360162 -0.191458 -0.115206 -0.154226 0.105231 -0.017522 -0.263278 -0.035300 -0.085027 0.089562 -0.072864 -0.026725 -0.091020 0.051217 -0.195236 -0.102366 0.098178 0.189607 -0.062798
54 -0.118045 -0.172731 0.060198 0.005594 0.032129 -0.001055 -0.156705 -0.064068 0.047038 -0.052254 0.066132 0.255054 0.120153 -0.049765 -0.046129 -0.021142 -0.219723 0.038383 0.151455 -0.048208 -0.016513 -0.093811 0.124490 0.042338 -0.097176 0.145855 -0.055066 -0.074407 0.009336 -0.013210 -0.068183 0.221555 -0.096973 0.091847 0.062788 -0.178634 0.017689 0.099206 0.005981 0.096928 -0.043192 -0.101165 0.063356 0.093280 -0.194988 0.126034 -0.169877 -0.116674 0.192331 -0.129724 -0.545482 -0.071612 0.102562 0.035524 0.038340 -0.110835 0.090061 0.028155 -0.075925 -0.141311 0.200725 -0.196725 -0.009277 0.106978 -0.031456 0.120156 0.080088 -0.268682 0.164272 0.040887 -0.160632 0.237791 0.009121 -0.033529 0.298337 0.181475 0.132325 0.053820 -0.144753 0.157176 -0.061026 -0.053590 -0.126802 -0.193631 -0.205767 0.040077 0.211603 -0.141905 -0.027783 -0.060226 0.305057 -0.306704 0.073720 -0.140423 -0.035670 0.034535 -0.246828 -0.262273 0.303322 -0.055123 -0.203390 -0.229722 0.038279 0.193458 0.000799 0.020702 0.095928 0.081753 -0.098159 -0.194255 -0.099310 -0.058971 -0.094029 0.064955 0.009248 -0.270223 -0.074356 -0.076607 0.029352 -0.096542 0.015542 -0.067457 0.051827 -0.162478 -0.119224 -0.007429 0.151718 -0.148452
26 0.029600 0.030386 -0.227309 -0.594652 -0.110556 -0.207094 0.041313 -0.137678 0.325142 -0.188258 0.040707 0.182666 0.164551 -0.033829 -0.252707 -0.045849 -0.200799 -0.324674 -0.137460 0.527954 0.472928 0.139043 0.290248 0.191898 -0.087482 -0.035984 -0.268515 0.151016 0.119268 0.186823 0.263002 0.061745 -0.007899 -0.313248 -0.355634 -0.239798 -0.341938 0.173942 -0.231833 -0.032875 -0.336250 0.073166 -0.496932 -0.181443 -0.075095 0.592469 -0.183535 0.347370 -0.466683 0.199675 -0.271192 0.182941 -0.050285 -0.410294 -0.062749 -0.339372 0.274938 -0.160135 -0.163552 -0.256732 -0.162207 0.079210 -0.267727 -0.038364 -0.184251 0.161009 -0.058722 -0.124655 0.045443 0.524176 0.242223 0.059096 0.413673 -0.229739 0.512549 -0.390361 -0.596247 -0.111523 0.251811 -0.121218 -0.136178 -0.217417 -0.120087 -0.488931 -0.116391 0.098150 0.145863 -0.505243 -0.622664 -0.207053 -0.012064 0.187220 0.047733 0.121178 -0.393899 0.222724 0.149039 0.214600 0.178871 0.109847 -0.148857 0.232836 -0.305405 0.288310 0.419404 0.406982 0.806199 0.506357 -0.162644 0.337382 -0.131326 -0.343726 0.057290 0.200843 -0.186342 0.083322 -0.147540 -0.013698 -0.141589 -0.439926 0.097032 -0.167641 -0.778671 -0.197319 0.163634 0.022712 -0.566037 -0.594084
57 0.065776 0.031642 -0.334128 -0.537861 -0.071505 -0.254585 -0.065662 -0.134222 0.483620 -0.083222 0.041541 0.204816 0.162508 -0.059555 -0.141786 -0.088048 -0.283348 -0.413766 -0.113055 0.523676 0.465905 0.112042 0.359243 0.239508 0.047580 -0.006727 -0.171778 0.167872 0.049144 0.143768 0.150222 0.199302 -0.012738 -0.258287 -0.191646 -0.240384 -0.377531 0.280055 -0.309710 -0.039642 -0.425775 0.111943 -0.486841 -0.091608 -0.136710 0.563207 -0.218363 0.365074 -0.405513 0.162209 -0.544128 0.220362 -0.010505 -0.467815 0.068188 -0.399819 0.244890 -0.222741 -0.123650 -0.377922 -0.109969 0.072440 -0.336585 -0.076569 -0.181596 0.118805 -0.113120 -0.114150 -0.017990 0.624479 0.207256 0.081573 0.470837 -0.318119 0.515548 -0.364177 -0.671820 -0.153686 0.266822 -0.167498 -0.097858 -0.194856 -0.044694 -0.566984 -0.163225 0.071686 -0.000219 -0.614408 -0.689744 -0.199417 -0.007109 0.105095 0.057678 0.161250 -0.262466 0.197381 0.175765 0.199309 0.102627 -0.034144 -0.130005 0.171357 -0.306054 0.286252 0.388486 0.333274 0.727689 0.420844 -0.266821 0.262745 0.014774 -0.444499 -0.086952 0.298867 -0.103863 -0.038024 -0.148235 -0.032355 -0.151685 -0.352995 0.147250 -0.153063 -0.681247 0.030101 0.189529 -0.104929 -0.512065 -0.524396
8 0.139452 -0.257363 0.057665 -0.000722 0.064240 0.025436 -0.151045 -0.130957 0.136418 -0.048968 -0.030123 0.213587 0.051964 -0.293710 -0.062325 -0.066959 -0.186376 -0.001618 0.109058 -0.161303 -0.031846 0.127655 0.181713 -0.083338 -0.164853 0.306300 0.033890 -0.137641 -0.105422 0.133408 -0.032229 0.143918 -0.096392 -0.014161 0.096660 -0.048004 0.011731 0.083173 0.035231 0.001821 -0.004323 -0.129924 0.075501 0.077851 -0.213262 0.112548 -0.053862 -0.136312 0.195129 -0.086182 -0.608634 0.031312 0.024964 0.028162 -0.051905 -0.167384 0.201578 0.042709 -0.162026 -0.059364 0.192280 -0.235676 -0.070336 0.095724 -0.074398 0.089437 0.177686 -0.267621 0.053359 -0.028068 -0.126103 0.273012 -0.005053 0.066414 0.461329 0.020947 -0.061323 0.070822 -0.180651 0.126901 -0.105043 -0.010370 -0.108517 -0.181179 -0.270375 0.009923 0.117391 -0.150807 -0.231722 -0.123748 0.359642 -0.322290 0.135280 -0.104996 -0.200395 -0.047485 -0.216596 -0.323723 0.322623 0.056399 -0.195277 -0.245169 0.016925 0.138490 -0.048999 0.010869 0.107035 0.109093 -0.068640 -0.360366 -0.184160 -0.068854 -0.083019 0.200580 -0.033221 -0.236347 -0.131743 -0.118308 0.055363 -0.205430 -0.076632 -0.206714 -0.008413 -0.249445 -0.120321 0.012851 0.101254 -0.209957
60 0.036354 -0.126939 0.084903 0.032308 -0.001545 0.049289 -0.151409 -0.054764 -0.062912 -0.024066 -0.082015 0.074232 0.056927 -0.167623 0.002467 -0.013411 -0.153889 0.003057 0.028240 -0.056277 0.041186 0.124811 0.161902 -0.006576 -0.135145 0.151485 -0.069477 -0.136277 -0.139826 -0.011657 -0.038039 0.059255 -0.164381 -0.009251 -0.098425 -0.142560 0.063479 0.160840 -0.088143 0.011287 -0.083743 -0.080521 0.141162 0.036657 -0.214144 0.307441 -0.133835 -0.200003 0.153818 -0.159065 -0.409889 -0.011692 0.060652 0.043963 -0.055477 -0.151646 0.113732 0.043729 -0.174118 0.000294 0.140164 -0.184648 -0.034026 0.097106 -0.094478 0.134756 0.231198 -0.273589 0.164093 0.007273 -0.213193 0.339685 0.015439 0.025943 0.333812 0.068504 0.040618 0.092982 -0.127235 0.118631 -0.063693 0.024318 -0.051455 -0.218069 -0.220781 0.026174 0.130296 -0.060759 -0.152252 -0.120312 0.313926 -0.339063 0.067148 -0.172391 -0.098331 -0.006899 -0.209296 -0.149294 0.317337 0.040903 -0.096828 -0.262977 0.073190 0.148729 0.012374 0.121577 0.172680 0.239972 -0.099613 -0.360150 -0.246477 -0.125231 -0.076320 0.177358 0.010854 -0.295309 -0.124292 -0.132916 0.099306 -0.261633 -0.032419 -0.191265 -0.056099 -0.293604 -0.109993 0.068381 0.169170 -0.283453
25 -0.027537 0.188564 -0.274503 -0.510369 -0.127980 -0.255381 0.047308 -0.050970 0.313547 -0.045627 -0.002346 0.046246 0.109460 0.085711 -0.153117 -0.039688 -0.109622 -0.372103 -0.183916 0.657286 0.532063 0.073918 0.343531 0.185843 0.018292 -0.153987 -0.243029 0.263020 0.077706 0.168363 0.238475 0.126560 -0.013610 -0.267833 -0.342934 -0.249408 -0.300904 0.243596 -0.443234 -0.108209 -0.399305 0.204009 -0.482063 -0.189408 -0.094635 0.707914 -0.162816 0.288464 -0.371021 0.117302 -0.483136 0.157404 0.032364 -0.500827 0.049065 -0.403010 0.379499 -0.115931 -0.130796 -0.364995 -0.175794 0.163162 -0.253327 -0.095307 -0.168390 0.195527 -0.093262 -0.191471 0.072321 0.618997 0.159075 0.178780 0.455043 -0.269621 0.584836 -0.350880 -0.744341 -0.042220 0.265728 -0.146704 -0.117244 -0.195810 -0.068304 -0.595365 -0.140325 0.090323 0.175502 -0.561950 -0.753273 -0.136884 0.055420 0.079261 0.099579 0.069855 -0.468447 0.268649 0.091008 0.309770 0.184249 0.040038 -0.094093 0.225282 -0.378560 0.252733 0.434084 0.395923 0.863110 0.536703 -0.237338 0.368585 -0.002501 -0.412676 0.006551 0.213882 -0.201200 0.034419 -0.137175 -0.034734 -0.172217 -0.337623 0.162302 -0.150649 -0.731163 -0.116170 0.166918 -0.067232 -0.485481 -0.581015
43 0.029919 -0.073932 0.018399 -0.050635 0.076366 0.000343 -0.157029 -0.040002 -0.062475 -0.053709 -0.075377 -0.001010 0.000457 -0.121705 0.026861 0.001241 -0.109070 0.012986 0.034906 -0.009608 0.088059 0.108690 0.151031 0.002386 -0.126273 0.081819 -0.048128 -0.068023 -0.092818 0.050306 0.026738 0.071033 -0.199854 0.084013 -0.084943 -0.093001 0.032499 0.111618 -0.054916 0.003551 -0.029341 -0.107320 0.164265 -0.007614 -0.256188 0.244424 -0.118474 -0.213226 0.204724 -0.128858 -0.432090 0.010103 0.055820 0.098955 -0.032980 -0.208610 0.139886 0.030890 -0.098889 -0.050075 0.135968 -0.143119 0.048798 0.114889 -0.069980 0.129665 0.134624 -0.262638 0.248569 -0.051693 -0.193825 0.295310 -0.029348 -0.027503 0.297456 0.006329 0.167137 0.083244 -0.132972 0.119474 -0.118570 0.035505 -0.092794 -0.182027 -0.210733 0.039084 0.159901 -0.040584 -0.130283 -0.076288 0.267026 -0.383311 0.070691 -0.254707 -0.112605 -0.003513 -0.184782 -0.102259 0.359282 0.055232 -0.116141 -0.236083 0.071864 0.123755 -0.003248 0.188746 0.189798 0.210724 -0.056070 -0.338236 -0.312903 -0.144330 -0.146789 0.121032 0.011961 -0.264419 -0.105881 -0.154339 0.123630 -0.176555 -0.061907 -0.122967 -0.095005 -0.352490 -0.157380 0.145296 0.111015 -0.314627
14 -0.038185 -0.172364 0.020720 -0.082624 0.107629 0.002676 -0.208719 -0.047675 0.081308 -0.090557 -0.050793 0.177520 0.098366 -0.150332 -0.026254 -0.050927 -0.216020 -0.000133 0.150822 -0.086420 -0.013142 0.081180 0.140549 0.032490 -0.105140 0.158309 -0.064635 -0.080305 -0.072880 -0.019722 -0.039291 0.138505 -0.142277 0.105383 0.018365 -0.094393 0.076344 0.035532 0.018355 0.031830 -0.051392 -0.137288 0.205423 0.073930 -0.240630 0.140399 -0.102374 -0.163836 0.203050 -0.140876 -0.498311 -0.002080 0.067743 0.128526 -0.069070 -0.140129 0.115680 0.077169 -0.125673 -0.090278 0.094555 -0.138643 0.002590 0.074003 -0.067377 0.120093 0.137731 -0.204751 0.142015 -0.021157 -0.138811 0.230358 0.036930 -0.030243 0.345410 0.043361 0.124019 -0.015381 -0.062790 0.084662 -0.050676 -0.022759 -0.051617 -0.201657 -0.256904 -0.067243 0.159984 -0.057708 -0.115405 -0.066113 0.228542 -0.341573 0.052534 -0.149689 -0.130686 -0.044751 -0.204590 -0.228412 0.289516 0.104302 -0.142634 -0.249052 0.111028 0.124096 -0.027815 0.122066 0.161051 0.202853 -0.207077 -0.339359 -0.223724 -0.148062 -0.068619 0.200707 -0.062696 -0.270918 -0.119947 -0.098807 0.068996 -0.247487 -0.019199 -0.189692 -0.043170 -0.269451 -0.127410 0.052763 0.165625 -0.251410
44 0.050342 0.091413 -0.369652 -0.562628 -0.094217 -0.223425 -0.042390 -0.115992 0.385675 -0.058306 0.004351 0.053432 0.035718 0.066196 -0.048118 0.028565 -0.176957 -0.383826 -0.127163 0.527649 0.456452 0.129297 0.232562 0.294717 0.063184 -0.165712 -0.146589 0.245397 0.002391 0.104174 0.201002 0.141596 -0.016842 -0.210560 -0.325140 -0.134050 -0.217293 0.176446 -0.341670 -0.138956 -0.333679 0.160695 -0.347887 -0.205717 -0.074424 0.513990 -0.085103 0.279787 -0.352727 0.080262 -0.359134 0.153020 0.038611 -0.408218 -0.031409 -0.345579 0.333920 -0.196919 -0.079880 -0.386467 -0.176536 0.193638 -0.264266 -0.102915 -0.172256 0.193901 -0.195430 -0.090662 0.009025 0.581488 0.241427 0.084457 0.484672 -0.330521 0.535473 -0.335742 -0.641099 -0.178625 0.310787 -0.100240 -0.079838 -0.236416 -0.112906 -0.523862 -0.142400 0.069960 0.139329 -0.604871 -0.681547 -0.226543 -0.058380 0.244449 0.042275 0.158614 -0.423215 0.281158 0.170636 0.223065 0.129688 0.104233 -0.192681 0.263147 -0.347904 0.283607 0.360577 0.381475 0.884923 0.580974 -0.334816 0.394482 -0.023606 -0.448115 -0.009034 0.238416 -0.253892 0.041582 -0.245314 0.027131 -0.166687 -0.385760 0.200951 -0.199579 -0.803794 -0.153425 0.100176 -0.020817 -0.405932 -0.578626
45 -0.161276 -0.112445 -0.178912 -0.037872 0.179731 -0.046597 0.323048 0.042979 0.026179 0.020764 0.322775 0.497755 0.270201 0.214391 -0.255070 -0.372003 -0.066057 0.008451 0.244650 0.244879 -0.061016 -0.198570 -0.051711 -0.005333 0.072220 -0.147407 -0.479484 -0.065040 0.199850 0.290317 0.152546 -0.120496 -0.053681 0.304439 -0.123321 0.034223 0.140495 0.138112 -0.080379 -0.130878 -0.023485 -0.062224 0.101998 -0.052561 -0.268634 -0.004538 -0.074095 -0.073909 0.088775 -0.271881 -0.510239 -0.179315 0.034473 -0.115670 -0.201338 -0.046455 0.382118 0.041520 -0.109482 0.110562 0.041519 -0.033697 -0.195632 0.239686 -0.125891 0.261773 -0.019538 0.101171 -0.053214 0.034437 0.011825 0.249249 -0.092316 -0.179435 0.016472 0.244737 0.181458 0.125984 0.185463 0.473405 -0.141996 -0.177642 -0.126006 0.284293 0.138668 0.187723 0.475883 0.068963 0.023175 -0.174880 -0.071153 -0.120560 -0.138608 -0.149588 -0.198868 -0.054384 -0.290457 -0.213295 0.238073 0.211297 -0.321999 0.181048 -0.156884 0.159345 -0.040109 0.058248 0.249737 0.396664 -0.057249 0.325792 0.141468 0.046693 0.098576 -0.078007 -0.279028 0.063370 -0.068227 0.025630 -0.153296 0.011337 0.299616 -0.207038 -0.014868 -0.158918 -0.066706 0.217933 0.193887 0.126343
41 -0.060282 -0.185527 -0.067333 -0.217376 -0.065237 0.048247 -0.183673 -0.124035 0.185949 -0.203543 -0.059674 0.149390 0.011802 -0.057179 -0.018035 0.061261 -0.182835 -0.033980 0.075650 -0.072613 -0.092130 0.049708 0.015392 0.041134 -0.110045 0.142494 0.030754 -0.004054 -0.013171 -0.152694 -0.059174 0.162926 -0.179986 0.078425 0.092446 -0.100501 0.000002 0.118693 -0.001851 0.082106 -0.071836 -0.208830 0.108151 0.119535 -0.222821 0.178803 -0.126783 -0.144925 0.222545 -0.117386 -0.548261 0.007348 0.067600 0.105100 -0.007714 -0.205603 0.133909 0.020725 -0.090420 -0.211510 0.104272 -0.141468 0.002481 0.005037 -0.064446 0.139061 0.056534 -0.152719 0.030523 -0.063881 -0.111436 0.199682 0.031843 -0.057025 0.342533 0.041282 0.137950 -0.021955 -0.138184 0.179353 -0.100811 -0.064796 -0.127919 -0.089320 -0.195344 -0.001889 0.158091 -0.140642 -0.066207 -0.136325 0.278333 -0.266253 0.055291 -0.132132 -0.152006 0.000317 -0.195521 -0.287678 0.279434 0.064578 -0.156536 -0.252343 0.103190 0.110187 -0.069019 0.000909 0.122641 0.162089 -0.208792 -0.322541 -0.177042 -0.170265 -0.113307 0.221105 -0.086885 -0.280834 -0.190550 -0.062852 0.098314 -0.191494 -0.020203 -0.204457 -0.000793 -0.209702 -0.112733 0.052083 0.264723 -0.153937
28 -0.092910 -0.120286 -0.135318 0.001291 0.190539 -0.006783 0.313179 0.072424 -0.008398 -0.028554 0.353682 0.427569 0.304750 0.120622 -0.306719 -0.422739 -0.105086 0.038485 0.205940 0.211721 -0.048945 -0.166016 0.024585 -0.007773 -0.027406 0.013235 -0.530411 -0.135659 0.210586 0.364091 0.145940 -0.118225 -0.079789 0.082841 -0.237472 -0.024371 0.145161 0.204762 -0.183314 -0.294070 0.058578 -0.028267 0.040983 -0.138562 -0.205351 0.052286 -0.035761 -0.042508 0.097227 -0.259049 -0.318659 -0.144454 0.026884 -0.155656 -0.196660 0.065058 0.467603 -0.009445 -0.146472 0.291510 -0.016705 0.044863 -0.266793 0.211193 -0.193923 0.267416 -0.054234 0.078676 -0.112072 0.041252 -0.006170 0.265727 -0.091889 -0.234810 0.072283 0.287160 0.194090 0.074625 0.152790 0.418176 -0.101879 -0.190734 -0.140215 0.204000 0.115354 0.173370 0.416855 -0.062493 0.020321 -0.268536 0.010145 -0.104462 -0.029830 -0.090065 -0.130879 -0.027132 -0.295946 -0.324085 0.256223 0.085556 -0.436761 0.183107 -0.156976 0.198993 -0.046795 0.060038 0.139769 0.359261 0.097282 0.214838 0.138494 0.124368 0.043773 -0.085043 -0.210256 -0.027700 0.022023 -0.019682 -0.120938 -0.096788 0.290457 -0.138350 -0.034935 -0.144259 -0.048951 0.185681 0.085400 0.064263
9 -0.025161 -0.143048 0.014690 0.020161 0.070453 0.042971 -0.108806 0.008408 0.057550 -0.038751 -0.018450 0.114189 0.135017 -0.112565 -0.035561 -0.080407 -0.154285 0.035300 0.082437 -0.049476 -0.052430 0.023061 0.142407 -0.044494 -0.095073 0.189211 -0.030798 -0.099396 0.011904 0.037312 -0.048890 0.088976 -0.061698 0.030562 0.065263 -0.094388 0.042269 0.090355 -0.016431 0.061311 -0.062557 -0.126816 0.119553 0.012972 -0.231222 0.153324 -0.148339 -0.141313 0.173082 -0.177568 -0.480334 0.045985 0.113851 0.064479 -0.036360 -0.118261 0.093313 -0.015467 -0.120850 0.041236 0.164691 -0.238340 -0.061878 0.134103 -0.148990 0.107111 0.143647 -0.191540 0.095190 0.107863 -0.162742 0.299587 0.016983 -0.108493 0.360144 0.035861 0.055870 0.027740 -0.164326 0.086041 -0.120442 -0.010495 -0.055157 -0.244683 -0.255268 -0.020984 0.125178 -0.164809 -0.160727 -0.099093 0.367359 -0.373786 0.140737 -0.119512 -0.040166 -0.064077 -0.238524 -0.358443 0.366495 -0.000560 -0.191404 -0.242043 -0.016196 0.163574 -0.048419 0.033250 0.101532 0.184901 -0.070990 -0.324688 -0.147715 -0.085229 -0.082868 0.116285 -0.018969 -0.307137 -0.034188 -0.132988 0.062692 -0.137840 0.069885 -0.119598 0.097111 -0.186452 -0.143546 0.044270 0.163762 -0.100452
39 0.238045 -0.111937 0.109682 -0.075900 0.000230 0.074315 0.152440 0.103756 0.142979 -0.162062 -0.123386 0.156537 0.326400 -0.462152 -0.288618 -0.392716 -0.121464 -0.120585 -0.198258 0.221084 0.344852 0.361740 0.277754 0.065799 -0.033807 0.285989 -0.326099 -0.112712 -0.058141 0.119250 0.042152 -0.384852 -0.441544 -0.263800 0.182465 -0.199254 0.037762 0.060888 -0.104520 -0.182603 0.135327 0.026546 0.094083 0.325831 0.047076 0.190675 0.026096 -0.265155 0.243990 -0.001884 -0.001523 -0.121700 -0.145125 0.046807 0.215854 0.017256 0.103579 0.414834 0.093096 -0.120785 -0.323199 0.163712 0.254506 -0.302464 -0.015290 0.201449 0.178806 0.057942 -0.003362 -0.242065 -0.034416 0.109087 0.041298 -0.077398 0.306046 -0.071648 0.007355 0.009929 -0.019312 -0.012521 -0.046700 -0.064402 -0.037231 0.011059 -0.199698 -0.223420 0.415747 0.190617 -0.021281 0.177610 0.157275 -0.212651 0.023903 -0.168329 -0.486888 -0.038267 -0.337732 -0.143569 0.221484 0.572313 0.021079 0.129256 0.257889 0.000768 -0.131247 0.025096 0.118291 0.286343 -0.321578 -0.281264 -0.165838 -0.015020 0.209674 0.233550 -0.264764 -0.063518 -0.282104 -0.108566 0.123984 -0.238487 -0.016059 -0.399885 0.148033 -0.486281 -0.031730 0.144845 0.481543 0.034070
51 0.014645 0.004021 -0.032944 -0.040504 0.473021 -0.156213 0.151899 0.317535 -0.083008 0.054109 -0.067423 0.023690 0.125318 -0.275923 0.064355 -0.221431 -0.053293 0.067808 0.075720 0.228206 0.313051 -0.067892 0.583879 -0.269116 -0.026712 0.121947 -0.322914 0.160848 0.094708 0.684831 0.238021 0.115940 -0.596026 0.052171 0.079985 -0.022233 0.383624 -0.094596 -0.309961 -0.115016 -0.150793 0.249644 0.098790 0.172259 0.147636 0.206571 0.130115 -0.126377 0.042696 0.150114 0.442386 -0.328202 0.015633 0.098251 -0.134063 -0.206177 0.184364 0.198673 0.106905 -0.442348 0.041806 0.187376 0.011924 0.122576 0.294722 0.182856 -0.240258 0.047514 0.227582 -0.047917 0.178498 0.028067 0.160245 -0.097756 0.129862 -0.110816 0.125672 0.535930 -0.150534 0.513694 -0.111052 -0.337560 -0.581944 0.053379 0.193214 0.562712 0.542758 -0.003303 0.030726 0.157951 -0.031377 0.304205 -0.306209 -0.324508 -0.694581 0.382804 -0.422311 -0.113753 0.241258 0.089615 -0.251568 0.251086 -0.101428 -0.037062 -0.070885 -0.343147 0.539964 0.573296 -0.164790 0.134418 0.151899 0.088181 0.027963 0.111301 -0.520600 0.251567 -0.431405 0.058429 -0.325548 0.363089 0.092498 -0.306142 0.108638 -0.684611 -0.083454 0.358476 0.644705 0.234627
33 -0.066958 0.110241 -0.027275 -0.147592 0.410134 -0.136068 0.084779 0.372426 -0.157468 -0.046513 -0.079447 0.000287 0.149935 -0.100066 0.009472 -0.087287 -0.018466 0.080099 0.139106 0.336365 0.207106 -0.109403 0.465717 -0.194943 -0.106424 -0.033983 -0.393357 0.302837 0.138147 0.459920 0.223954 0.113502 -0.517098 0.050257 -0.074250 -0.066967 0.244418 -0.133309 -0.262551 -0.062093 -0.205323 0.174068 0.133131 0.147775 0.124609 0.308428 0.064851 -0.197369 -0.008036 0.122012 0.270500 -0.202282 -0.015178 0.127654 -0.136351 -0.207771 0.164101 0.306503 0.045489 -0.370289 -0.042718 0.215871 -0.016990 0.008411 0.353339 0.093608 -0.230912 -0.020609 0.230710 -0.038927 0.218640 0.003192 0.199902 -0.004092 0.124315 0.002286 0.074520 0.541410 -0.033277 0.601756 -0.077374 -0.310068 -0.563056 0.088291 0.183072 0.531908 0.581884 -0.066720 0.046973 0.159155 0.028977 0.310846 -0.326946 -0.354410 -0.717592 0.488736 -0.488519 -0.146126 0.353457 0.068857 -0.322679 0.163192 -0.092413 -0.062322 -0.061155 -0.354825 0.512798 0.584034 -0.207871 0.043534 0.190913 0.044081 0.119903 0.142960 -0.622621 0.216009 -0.494513 -0.012854 -0.329120 0.247927 0.063002 -0.397973 0.185073 -0.696711 -0.093601 0.287903 0.831995 0.175039
2 0.222180 -0.114131 0.113782 -0.151972 -0.030059 0.064490 0.074173 0.101987 0.186959 -0.217399 -0.155599 0.129304 0.248801 -0.460736 -0.204748 -0.281806 -0.144302 -0.159054 -0.198737 0.185863 0.366358 0.409128 0.214828 0.131482 -0.050576 0.227465 -0.263914 -0.098692 -0.076126 0.008721 0.051323 -0.372471 -0.453658 -0.220501 0.115899 -0.216543 0.024313 0.057061 -0.092251 -0.144611 0.128383 -0.042387 0.133211 0.300689 -0.020845 0.143578 0.014550 -0.251888 0.243254 -0.043012 -0.049302 -0.125863 -0.127171 0.101129 0.127113 -0.004064 0.155973 0.392786 0.076658 -0.151985 -0.326020 0.198343 0.213844 -0.310481 -0.030092 0.249997 0.182685 0.068621 -0.000035 -0.259659 -0.053156 0.096490 0.120103 -0.085769 0.265840 -0.091315 0.072962 -0.010333 -0.012418 -0.003671 -0.033097 -0.119463 -0.081096 0.020547 -0.211438 -0.181887 0.420225 0.164498 0.031847 0.129621 0.138367 -0.173926 -0.050708 -0.186936 -0.475364 -0.035003 -0.266203 -0.191463 0.197802 0.588929 0.015435 0.078084 0.306528 -0.014296 -0.109258 0.015508 0.129543 0.258386 -0.362189 -0.277607 -0.204468 -0.061881 0.234073 0.234107 -0.257689 -0.047405 -0.309005 -0.038721 0.080917 -0.297605 -0.025741 -0.383362 0.093126 -0.489452 -0.071190 0.150602 0.450627 -0.002831
24 0.193195 -0.101544 -0.161729 -0.011561 -0.211373 0.031953 0.514111 0.043956 -0.015292 0.328525 -0.049357 0.112598 0.101927 0.193293 0.098402 -0.106565 -0.008930 -0.164555 -0.084991 0.232092 0.237487 -0.060170 -0.177320 0.549398 0.434795 -0.392003 0.011231 -0.044699 -0.352342 0.162357 0.084736 -0.288397 0.118173 -0.202358 0.046568 0.156813 0.017144 0.106497 -0.062867 -0.413842 0.050837 0.360839 0.045396 -0.026099 0.092714 -0.134180 0.056823 0.121572 0.053889 0.105608 0.213778 0.185185 -0.055817 -0.071052 0.446943 0.117376 0.129739 -0.229768 0.145681 -0.381776 0.326794 -0.521045 0.414470 -0.001643 -0.137972 -0.015154 -0.470894 0.050435 -0.004152 -0.107346 0.074730 0.031716 -0.071395 -0.077417 0.226496 -0.388721 -0.131742 0.085142 -0.339147 0.396828 -0.363685 -0.047339 -0.109324 0.092877 0.010971 0.107138 0.129867 0.117970 0.132139 0.250182 0.285965 -0.073431 0.197718 0.059626 -0.128192 0.355891 -0.175978 0.025429 0.225265 0.086247 -0.053920 0.303626 -0.080600 0.069992 -0.162559 0.231327 0.448191 0.324061 -0.067561 0.213730 -0.015169 -0.343216 -0.279316 -0.066400 -0.184134 -0.020067 -0.252586 -0.235633 0.298995 0.361042 0.085456 -0.174507 0.233536 -0.371138 0.124727 0.196440 0.231041 0.314687
36 0.296049 -0.151249 -0.185843 0.010721 0.015371 0.024534 0.437313 0.050131 -0.069844 0.292534 -0.010914 0.134811 0.132897 0.027497 0.114071 -0.127047 -0.111205 -0.123639 0.010437 0.098770 0.154309 0.037149 -0.014627 0.512440 0.338279 -0.250619 -0.018671 -0.176235 -0.379337 0.352015 0.120778 -0.185643 0.039796 -0.302088 -0.026068 0.131779 0.013977 0.092325 -0.064960 -0.516273 -0.013319 0.320165 0.137998 -0.124366 0.066165 -0.082036 0.063235 0.096466 -0.012652 0.168464 0.240218 0.352086 -0.073257 -0.148375 0.445189 0.050163 0.069322 -0.287807 0.064006 -0.164977 0.306036 -0.652569 0.378500 0.099977 -0.058353 -0.044361 -0.427974 0.108136 -0.033175 -0.086986 0.152596 -0.045530 -0.085244 -0.078484 0.127141 -0.342133 0.000946 0.165629 -0.238412 0.497535 -0.352638 -0.055731 -0.122793 0.104551 0.108088 0.209478 0.136348 0.141607 0.122976 0.197189 0.188972 -0.140355 0.108424 0.035110 -0.147480 0.338987 -0.210245 0.134761 0.182522 0.136172 -0.150237 0.268136 0.002874 0.103261 -0.036547 0.207512 0.331484 0.307840 0.013947 0.232972 0.094508 -0.326031 -0.324645 -0.014473 -0.230973 -0.055839 -0.245709 -0.263613 0.215544 0.367046 0.066433 -0.224289 0.226514 -0.190104 0.230465 0.239091 0.157388 0.210250
30 0.236106 -0.236110 -0.187936 -0.053872 -0.292951 0.028600 0.546767 -0.037475 0.072286 0.283117 -0.070272 0.118047 -0.006168 0.112494 0.102996 -0.054727 0.070906 -0.232950 -0.150322 0.138457 0.207655 0.038562 -0.296411 0.477130 0.414508 -0.431873 0.153544 -0.054690 -0.322919 0.020244 0.065854 -0.325423 0.124804 -0.237775 0.042058 0.144020 -0.126532 0.135780 0.059721 -0.261143 -0.020138 0.312883 0.098753 -0.046939 -0.042258 0.013325 0.031639 0.013679 -0.033853 0.145700 0.048029 0.347493 -0.024849 -0.152785 0.424731 -0.104223 -0.003584 -0.252051 0.110180 -0.260528 0.314966 -0.675795 0.366948 0.065163 -0.107181 0.000395 -0.341782 0.080111 -0.015391 -0.142502 0.084483 0.057289 -0.180419 -0.049288 0.113732 -0.312380 0.043955 0.128583 -0.270190 0.498547 -0.445984 -0.060227 -0.182382 0.224955 0.049984 0.188201 0.180452 0.154649 0.143087 0.116387 0.183120 -0.154818 0.064702 0.045014 -0.110571 0.290693 -0.174204 0.010110 0.258810 0.135385 -0.072764 0.303020 -0.106208 0.011471 -0.167285 0.218916 0.466497 0.319702 -0.080169 0.276079 -0.023634 -0.294962 -0.234911 -0.098780 -0.172513 0.044645 -0.296046 -0.199116 0.195666 0.374959 0.091484 -0.187670 0.178269 -0.440113 -0.033579 0.276871 0.268807 0.308211
27 0.140621 -0.213172 -0.081612 -0.018546 -0.120695 0.063241 0.230379 0.043606 0.004077 0.091911 0.009762 0.165666 0.090816 -0.037968 0.022358 -0.146570 -0.146736 -0.130564 -0.058315 0.068686 0.175933 0.013599 -0.054108 0.434862 0.259363 -0.218626 -0.112072 -0.231806 -0.273760 -0.020375 0.014419 -0.214455 -0.008829 -0.260692 -0.125110 -0.034377 -0.034888 0.146092 0.029930 -0.205495 -0.007451 0.117434 0.192425 -0.089587 -0.116231 0.181165 0.027924 -0.074576 0.026640 -0.002752 -0.040183 0.286282 0.068886 -0.197185 0.297094 -0.132485 -0.113527 -0.286558 0.007977 -0.103004 0.149875 -0.540411 0.265133 0.065878 -0.085788 -0.063311 -0.177094 -0.098082 0.131074 -0.035610 -0.037069 0.001551 0.083212 -0.173002 0.210260 -0.259646 0.058925 -0.080754 -0.176868 0.014319 -0.088733 -0.036396 -0.151084 -0.281705 -0.231702 -0.018004 0.017849 -0.093347 0.026597 0.060912 0.252706 -0.099918 0.151171 0.272014 -0.019319 0.267406 -0.003478 -0.024969 0.092587 0.048169 -0.176140 0.107083 0.066427 0.051466 -0.107339 0.190697 0.029561 0.072255 -0.010700 0.134538 -0.058965 -0.021920 -0.131552 -0.190031 -0.038695 -0.017131 -0.169026 -0.031995 0.003799 0.266634 -0.113332 0.094895 0.021568 -0.197848 -0.019397 0.255696 0.039438 0.099421
35 0.167813 -0.183845 -0.196159 -0.080314 -0.231577 0.033306 0.390269 -0.105085 0.055272 0.189725 -0.064282 0.135395 0.031677 0.108445 0.043139 -0.076013 -0.014654 -0.145159 -0.085500 0.135548 0.147756 0.050829 -0.188411 0.418406 0.300393 -0.233482 0.087310 -0.093816 -0.315871 0.107344 0.063794 -0.219632 0.089584 -0.177875 0.104345 0.110060 -0.034902 0.094391 -0.056603 -0.352602 0.006366 0.251004 0.056737 -0.003888 0.076516 -0.121860 0.009040 0.093050 -0.010298 0.110948 0.080378 0.192631 -0.074167 -0.134930 0.407424 0.061369 0.110457 -0.123664 0.099628 -0.299038 0.223541 -0.513938 0.448140 0.004467 -0.135162 0.011380 -0.428924 0.096650 -0.010125 -0.146775 0.084378 0.028393 -0.084542 -0.066931 0.171693 -0.399996 0.009576 0.144312 -0.289328 0.472443 -0.398131 -0.144394 -0.146796 0.068123 0.083495 0.161521 0.192721 0.177538 0.121549 0.239618 0.273450 -0.152893 0.118192 0.124933 -0.207665 0.336764 -0.195059 0.085243 0.181415 0.166846 -0.019647 0.266711 -0.103657 -0.013563 -0.130540 0.270422 0.368715 0.341862 -0.054476 0.323027 0.004080 -0.315482 -0.263753 -0.169564 -0.210817 0.060319 -0.178805 -0.192816 0.203379 0.461072 0.073575 -0.150589 0.225589 -0.345086 0.140933 0.232135 0.124960 0.354463
68 0.174720 -0.372208 -0.171347 -0.020510 -0.127607 0.048618 0.306827 -0.008635 0.147268 0.017678 -0.029390 0.231314 0.009552 -0.012780 0.080643 -0.149116 -0.177786 -0.089631 -0.081983 0.055131 0.137904 0.039765 -0.116622 0.341037 0.226037 -0.157641 -0.136837 -0.356589 -0.354823 -0.070652 0.058632 -0.169075 0.084067 -0.321456 -0.023492 0.041589 -0.002227 0.154939 -0.048002 -0.230965 0.027547 0.228391 0.184058 -0.130786 -0.070134 0.160879 0.111487 -0.061011 0.075706 -0.000306 -0.075926 0.267212 0.157678 -0.144393 0.272471 -0.137174 0.032128 -0.293249 -0.002266 -0.200237 0.250493 -0.487201 0.243400 0.035684 -0.108743 -0.045157 -0.280613 -0.058989 0.088343 -0.083441 -0.036403 -0.048600 -0.009740 -0.092800 0.182365 -0.154300 0.029893 -0.028006 -0.226263 0.050129 -0.120419 -0.074341 -0.127237 -0.114008 -0.072570 0.006968 0.102081 -0.059314 0.116107 0.104015 0.254250 -0.005744 0.157710 0.269742 -0.052854 0.258242 0.038044 -0.076161 0.053229 0.059190 -0.107210 0.151257 -0.073608 0.035686 -0.143905 0.195354 0.077581 0.062200 0.032289 0.250151 -0.115478 0.044408 -0.087268 -0.264557 -0.088878 0.076413 -0.078622 -0.015992 0.072457 0.240943 -0.062903 0.141862 -0.019308 -0.236008 -0.040183 0.141636 -0.070892 0.157636
38 0.291582 -0.074526 0.116253 -0.100619 -0.095277 0.100795 0.032401 0.057536 0.070512 -0.173154 -0.190345 0.049998 0.218249 -0.391281 -0.230929 -0.188320 -0.060137 -0.093095 -0.229914 0.187099 0.268795 0.367379 0.205385 0.040364 -0.112927 0.258023 -0.197106 -0.080560 -0.127052 0.000052 0.031496 -0.345786 -0.436982 -0.251759 0.110096 -0.141705 -0.004540 0.105192 -0.115504 -0.215312 0.149726 -0.023164 0.152257 0.288342 -0.054871 0.203695 0.058612 -0.270350 0.277562 -0.077228 -0.138831 -0.181481 -0.179868 -0.016666 0.222133 -0.061063 0.263022 0.346508 0.061912 -0.254775 -0.293576 0.120090 0.278762 -0.335301 -0.013206 0.214538 0.165643 0.005138 0.019271 -0.205211 -0.076664 0.130114 0.103120 -0.095238 0.248054 -0.127259 -0.024338 0.068627 0.003550 -0.024658 -0.022158 -0.086007 -0.051622 0.058501 -0.211828 -0.112903 0.353332 0.105932 -0.057572 0.079458 0.101181 -0.205291 -0.031796 -0.125449 -0.475860 0.012534 -0.304067 -0.079366 0.186253 0.582784 0.014996 0.137400 0.306134 -0.023314 -0.157428 -0.029671 0.184736 0.343222 -0.388591 -0.207883 -0.221391 -0.066290 0.196084 0.203181 -0.353531 -0.074285 -0.486473 -0.055973 0.003494 -0.184452 -0.046425 -0.437440 0.038140 -0.565652 -0.068370 0.221226 0.522264 0.010892
3 0.235837 0.035705 0.210553 -0.005539 -0.011883 0.081599 0.119936 0.126899 0.039442 -0.138951 -0.090728 0.126640 0.295234 -0.528908 -0.307125 -0.318452 -0.108544 -0.098583 -0.236771 0.177877 0.336146 0.343769 0.258991 0.104608 -0.017413 0.273340 -0.238136 -0.039417 0.002555 0.134387 0.031282 -0.384352 -0.397666 -0.200708 0.106969 -0.236184 0.018140 0.052482 0.039640 -0.087759 0.178876 -0.120501 0.088058 0.307299 -0.028348 0.161053 -0.018221 -0.260158 0.144918 -0.042677 -0.025635 -0.093359 -0.090126 -0.027982 0.247359 -0.000999 -0.015100 0.257716 0.081531 -0.090798 -0.274809 0.008722 0.237844 -0.223410 0.014269 0.196531 0.157287 0.049854 0.078941 -0.264333 -0.034580 0.079770 0.133196 -0.140220 0.365819 -0.066947 0.160310 -0.000196 -0.044731 0.019486 -0.009986 -0.169872 -0.181613 -0.088090 -0.238958 -0.142204 0.512085 0.169970 0.050967 0.191745 0.194938 -0.254335 0.003289 -0.223725 -0.502830 0.001543 -0.302605 -0.126426 0.205757 0.594362 -0.002368 0.039553 0.359020 0.078081 -0.086748 0.066144 0.087158 0.232100 -0.351254 -0.308972 -0.236969 -0.052234 0.212452 0.174524 -0.202207 -0.087832 -0.367600 -0.041526 0.133403 -0.217938 -0.098662 -0.308870 0.092797 -0.508136 -0.071439 0.207971 0.440482 0.006687
34 0.090187 0.167677 0.101532 0.137656 0.755245 -0.242228 0.106025 0.540139 -0.190797 0.188594 -0.191838 -0.052828 0.185154 -0.423890 0.111062 -0.288632 0.026196 0.107760 0.183374 0.257776 0.392977 -0.039297 0.835691 -0.427774 -0.062605 0.107797 -0.350230 0.261238 -0.011372 0.831025 0.290842 0.052666 -0.665277 -0.116497 -0.000872 0.020450 0.514920 -0.139451 -0.344694 -0.318975 -0.180485 0.506895 0.427538 0.147594 0.051604 0.422110 0.330723 -0.355925 0.177747 0.094104 0.372528 -0.146588 0.167487 0.138777 -0.083676 -0.377254 0.165880 0.207252 0.094702 -0.517088 0.028748 0.162555 -0.039659 0.022527 0.307043 0.050660 -0.215744 -0.079164 0.328946 0.012637 0.101462 -0.015043 0.268136 0.028979 0.202509 -0.111606 -0.146198 0.544761 -0.173005 0.315560 -0.085222 -0.224514 -0.495640 -0.035479 0.053205 0.479594 0.543729 -0.147321 -0.054492 0.259367 -0.012225 0.377822 -0.309113 -0.345419 -0.748665 0.430331 -0.452391 -0.271269 0.303388 0.128266 -0.322349 0.324203 -0.115309 -0.205229 -0.166683 -0.513573 0.554323 0.513437 -0.278768 0.200512 0.306101 0.160344 0.243099 0.096498 -0.776223 0.404116 -0.634843 0.176561 -0.501098 0.441761 0.092601 -0.321219 0.211481 -0.783675 -0.226818 0.397268 0.930514 0.380884
59 0.129080 -0.129091 0.174622 -0.005953 -0.084883 0.069448 0.136274 0.086782 0.070926 -0.073069 -0.173489 0.128400 0.249544 -0.359083 -0.192175 -0.229354 -0.068590 -0.077053 -0.141276 0.154422 0.271119 0.242942 0.212801 0.029432 -0.026577 0.215850 -0.216584 -0.084992 -0.067833 0.055946 0.005978 -0.215040 -0.315540 -0.198496 0.077846 -0.204234 0.093620 0.012907 -0.080815 -0.114631 0.063045 0.029157 0.106452 0.287819 -0.040720 0.250093 -0.016351 -0.271216 0.204070 -0.075258 -0.130511 -0.123403 -0.047059 0.010692 0.187540 -0.017908 0.026515 0.341685 0.003170 -0.080093 -0.235400 0.022596 0.264543 -0.204148 0.001754 0.210878 0.262513 -0.015468 0.005305 -0.197197 -0.094901 0.184717 0.058537 -0.054445 0.229354 -0.029218 0.001429 0.049129 -0.015382 0.007784 -0.027330 -0.076653 -0.035653 0.039320 -0.214566 -0.163645 0.365861 0.242131 -0.016315 0.135277 0.169957 -0.302790 0.001659 -0.186067 -0.409058 -0.080176 -0.315224 -0.066952 0.199653 0.558694 0.117367 0.073399 0.204339 0.016709 -0.073948 0.047813 0.229990 0.291535 -0.354962 -0.201401 -0.180896 -0.065069 0.231851 0.172844 -0.240320 -0.079895 -0.298153 -0.068919 0.106617 -0.229622 0.019985 -0.390139 0.097835 -0.507739 -0.106349 0.096981 0.458208 -0.014983
42 -0.017977 0.214266 0.113275 -0.037278 0.628788 -0.163312 0.166925 0.621022 -0.255718 0.188106 -0.207844 -0.109939 0.204515 -0.233003 0.134780 -0.215255 0.025368 0.081527 0.182076 0.358070 0.380612 -0.167007 0.739745 -0.221615 0.053091 -0.117534 -0.420221 0.321926 0.015467 0.653686 0.285282 -0.019677 -0.702808 -0.067693 0.041424 0.038165 0.484815 -0.103346 -0.317134 -0.311958 -0.132433 0.360270 0.288756 0.193576 0.131066 0.274677 0.299418 -0.215095 0.220822 0.140655 0.491069 -0.374037 0.041259 0.222325 -0.203495 -0.230139 0.320487 0.208365 0.088359 -0.592083 0.037303 0.336631 -0.163996 -0.001961 0.320067 0.092799 -0.275711 -0.134206 0.342428 0.106807 0.103394 -0.024339 0.389790 -0.048862 0.319947 -0.122881 -0.234963 0.582163 -0.232368 0.284677 -0.054819 -0.223323 -0.565890 -0.092042 -0.010357 0.539391 0.531853 -0.381582 -0.133596 0.185076 0.051950 0.457272 -0.287833 -0.373106 -0.806226 0.468641 -0.482740 -0.412609 0.407360 0.037022 -0.450433 0.312350 -0.113729 -0.089728 -0.132437 -0.665510 0.605107 0.552487 -0.293850 0.012412 0.255512 0.147175 0.185474 0.303613 -0.815387 0.276381 -0.733284 0.151591 -0.495700 0.278809 0.066331 -0.378072 0.150238 -0.785684 -0.196296 0.371343 0.979762 0.270265
4 0.271153 0.019341 0.138416 0.008756 0.034304 0.072873 0.017031 0.077640 0.047981 -0.100170 -0.127955 0.024121 0.178758 -0.467153 -0.191902 -0.269702 -0.009194 -0.102111 -0.194772 0.123185 0.239045 0.396543 0.213849 -0.024832 -0.073734 0.263292 -0.157873 -0.011850 -0.043029 0.072783 -0.007074 -0.358247 -0.390826 -0.140337 0.018267 -0.131025 0.048563 0.071627 -0.099641 -0.179055 0.108257 -0.000841 0.221864 0.196702 -0.074770 0.228708 0.035641 -0.304158 0.203260 -0.130197 -0.160673 0.006064 -0.057509 -0.008980 0.145505 -0.079904 0.142039 0.301978 0.055178 -0.040204 -0.259939 0.079919 0.222886 -0.233572 -0.040842 0.217971 0.151251 0.039097 0.026532 -0.232351 -0.064286 0.165101 0.084348 -0.098548 0.310479 -0.102152 0.069058 -0.006874 0.013093 0.007276 -0.025866 -0.088642 -0.074236 -0.090931 -0.209810 -0.180069 0.338193 0.121715 -0.040556 0.121571 0.129981 -0.198738 0.012746 -0.147621 -0.451925 0.023593 -0.234007 -0.076665 0.158193 0.492535 -0.004169 0.056252 0.246792 -0.040005 -0.160119 0.131859 0.090382 0.279102 -0.302468 -0.252801 -0.171355 -0.051179 0.121859 0.124951 -0.210537 -0.042231 -0.255527 -0.060967 0.070482 -0.166499 -0.029567 -0.311489 0.043517 -0.456971 -0.114536 0.207695 0.403898 -0.001209
17 -0.163700 -0.012569 -0.013693 -0.352104 -0.339433 -0.372647 0.202223 0.060103 0.638153 -0.196877 -0.105692 0.375444 0.266548 -0.053279 -0.333089 -0.046473 -0.281832 -0.306269 -0.296914 0.543010 0.565831 -0.035572 0.465682 -0.032928 0.022995 0.249747 -0.296213 0.150118 0.097435 0.063325 0.228655 0.261643 0.185802 -0.375487 -0.117316 -0.428704 -0.097810 0.115028 -0.233163 0.024770 -0.380305 0.188061 -0.468861 0.161876 -0.087928 0.574268 -0.078046 0.316064 -0.342095 0.073687 -0.482446 -0.039577 0.298449 -0.523881 0.353892 -0.277082 0.015444 -0.093760 -0.114210 -0.718132 -0.139240 -0.025172 -0.179412 -0.265377 -0.131099 0.192490 -0.027232 -0.103185 -0.033851 0.657718 0.059690 -0.066341 0.581057 -0.160201 0.522634 -0.078168 -0.798887 -0.197868 0.201960 -0.389905 0.146622 -0.364250 0.033082 -0.434018 -0.142375 -0.025894 0.352595 -0.347841 -0.380585 0.100336 -0.005395 0.136479 -0.027825 0.128183 -0.352988 0.097895 0.183458 0.219689 -0.019687 0.321579 0.178228 0.163968 -0.172589 0.320603 0.496585 0.163022 0.828308 0.331881 -0.649914 0.540843 -0.069677 -0.377462 0.423141 0.157512 -0.298645 0.001221 -0.395418 0.308981 -0.221063 -0.387292 0.142198 -0.017918 -0.645340 -0.077005 0.173963 -0.285648 -0.371006 -0.311358
52 -0.045540 -0.110479 -0.050307 -0.396554 -0.229021 -0.400208 0.140138 -0.001285 0.621526 -0.237615 -0.139880 0.379621 0.278440 -0.221262 -0.324515 -0.098742 -0.332032 -0.311142 -0.298415 0.545704 0.625946 0.055620 0.648135 -0.185588 -0.107916 0.406848 -0.343609 0.115041 0.094510 0.228920 0.256701 0.353440 0.057641 -0.470732 -0.180548 -0.441346 -0.133435 0.138929 -0.264942 0.029730 -0.501731 0.222787 -0.459814 0.177229 -0.097247 0.782315 -0.122665 0.285432 -0.477180 0.140468 -0.385992 0.027370 0.246854 -0.583132 0.323576 -0.431090 -0.068972 -0.124915 -0.174698 -0.697771 -0.158000 -0.083678 -0.189984 -0.206980 -0.069619 0.146681 0.001173 -0.081805 -0.024479 0.659881 0.133694 -0.086890 0.610458 -0.194604 0.382444 -0.206175 -0.780556 -0.100029 0.237291 -0.330188 0.131276 -0.415324 -0.067694 -0.411211 -0.066830 0.125366 0.258089 -0.345047 -0.391025 0.044581 -0.084982 0.237803 -0.113903 0.178548 -0.346803 0.195572 0.206282 0.348930 -0.091969 0.261538 0.173530 0.238548 -0.185809 0.290366 0.497426 0.148070 0.861406 0.434992 -0.612467 0.631365 -0.052922 -0.348815 0.383365 0.102621 -0.328051 0.084591 -0.464408 0.321569 -0.351516 -0.246869 0.099286 -0.063976 -0.707184 -0.107915 0.234620 -0.150774 -0.369466 -0.273628
48 0.053648 -0.005411 0.043728 0.016104 0.061149 -0.054229 0.108719 0.062004 0.265055 -0.094450 -0.033384 0.046102 0.005380 -0.175804 -0.059410 -0.257939 -0.039067 -0.106200 -0.113361 0.042515 0.216544 0.259556 0.067761 -0.043404 -0.005403 0.108853 -0.190980 -0.095944 -0.043955 0.082634 0.108994 -0.232638 -0.134408 0.004124 0.069124 -0.038285 0.213759 0.090356 -0.188884 -0.189254 0.095279 0.131869 0.219177 0.047790 -0.066180 0.027874 0.152514 -0.217488 0.274481 -0.191844 -0.261823 -0.028184 0.177441 0.088304 -0.018704 -0.019244 0.280513 0.176367 0.051193 -0.144289 -0.044068 0.143036 -0.013070 -0.098019 -0.200930 0.262922 0.079304 -0.041504 0.064561 -0.117485 -0.162605 0.204372 0.003346 0.083216 0.432828 -0.005001 -0.189517 -0.116467 -0.096918 -0.090883 -0.069656 0.076047 0.119232 -0.112470 -0.179468 -0.298322 0.337804 0.068676 -0.122217 0.195907 0.208461 -0.100962 0.071799 -0.137661 -0.332225 -0.102074 -0.121592 -0.265808 0.265924 0.459725 0.040970 0.006002 0.013385 -0.083662 -0.098526 0.091006 0.144056 0.070597 -0.212942 -0.212042 -0.150560 -0.005786 0.225049 0.153058 -0.140590 0.030548 0.034358 -0.011367 0.253038 -0.328260 0.101614 -0.167415 0.131953 -0.416035 -0.262522 -0.013061 0.263674 -0.024302
32 0.040658 0.118982 0.110611 0.309047 0.173822 -0.022040 0.202868 0.242761 0.079737 0.038197 0.076768 0.092194 0.094374 -0.157961 -0.099188 -0.310261 0.021582 0.022021 -0.076243 0.065479 0.200365 0.078400 0.069996 -0.030762 0.076627 0.042242 -0.254890 -0.097281 -0.042597 0.187168 0.111835 -0.300119 -0.090756 0.046827 0.158194 -0.094239 0.227931 0.045535 -0.186758 -0.126049 0.139827 0.163401 0.176320 0.002279 -0.193955 0.055577 0.167722 -0.234047 0.466959 -0.269896 -0.414944 -0.083954 0.249164 0.129872 0.102715 -0.059161 0.274859 0.128799 0.116854 -0.209287 0.061235 0.132633 0.060361 -0.039766 -0.146254 0.181510 0.072919 -0.121460 0.121907 -0.078894 -0.177597 0.223134 0.035786 0.085321 0.483094 0.095263 -0.251016 -0.068408 -0.081849 -0.183836 0.002065 0.062050 0.144994 -0.202067 -0.208102 -0.295324 0.419355 0.054343 -0.152106 0.231119 0.210934 -0.126176 0.161321 -0.219704 -0.330959 -0.126871 -0.097496 -0.179349 0.180312 0.361466 0.094562 0.012462 -0.009668 -0.034000 0.010166 0.129711 0.219412 0.021085 -0.184435 -0.147658 -0.114379 0.004038 0.284926 0.097494 -0.135351 0.053380 -0.004508 -0.003357 0.242157 -0.311655 0.089896 -0.065045 0.036024 -0.391905 -0.261934 -0.096965 0.191442 -0.099582
67 0.151451 -0.333136 -0.050631 -0.104527 -0.026584 -0.070872 -0.081076 -0.219678 0.290038 -0.132866 0.030890 0.216313 -0.081666 -0.297937 0.081912 -0.130274 -0.236646 -0.210475 -0.128746 -0.105656 0.179516 0.178075 -0.035047 -0.047741 -0.044587 0.213521 0.085538 -0.279058 -0.085846 -0.159695 -0.054893 -0.047524 -0.092210 0.225206 0.349514 -0.107925 -0.266486 0.237567 0.196597 0.425888 -0.053672 -0.379165 -0.150295 0.363597 -0.362405 -0.152142 -0.257041 0.069552 0.076136 -0.067582 -0.613411 -0.260616 -0.204687 0.170674 -0.008511 -0.210161 0.078550 0.122282 0.004178 -0.212517 0.279731 -0.017702 -0.047952 0.145265 -0.142116 0.083331 0.157223 -0.159737 0.282239 -0.090930 -0.218251 0.275528 0.019020 -0.146955 0.205072 -0.072640 0.174432 0.112985 -0.141560 0.090489 -0.153096 -0.110265 -0.201181 0.022365 -0.210281 0.193287 0.173520 -0.115536 0.062207 -0.088896 0.215526 -0.254008 -0.116019 -0.160161 0.046595 -0.063669 0.010126 -0.350849 0.261651 -0.035458 -0.178075 -0.086865 -0.027344 0.186502 -0.139932 0.063377 0.222503 0.214076 -0.021120 -0.160496 -0.362369 0.074909 -0.088792 -0.042250 -0.063305 -0.002847 -0.277440 0.047438 -0.054216 0.066445 -0.073148 0.037342 -0.090055 -0.474114 -0.315231 0.270207 0.096379 0.155294
12 0.225295 -0.408824 -0.144023 -0.079288 0.161193 -0.139405 -0.131769 -0.147505 0.275277 -0.120288 0.196579 0.405296 0.089212 -0.369188 0.018861 -0.207863 -0.404891 -0.147115 0.010075 -0.143518 0.221386 0.231854 0.164649 0.000437 -0.069543 0.263206 -0.098532 -0.352650 -0.147075 0.196815 0.092752 0.023739 -0.186640 0.218364 0.345325 -0.057275 -0.252715 0.234353 0.111001 0.291795 -0.019029 -0.353262 -0.109449 0.226236 -0.356527 -0.216251 -0.225904 0.053571 0.044620 -0.033173 -0.523658 -0.128048 -0.221144 0.140954 -0.034705 -0.201645 0.029625 -0.014775 0.078750 -0.176672 0.264080 -0.036121 -0.114734 0.154368 -0.172336 0.096165 0.210909 -0.059991 0.173674 0.059500 -0.180233 0.243225 0.004727 -0.132944 0.063512 -0.093768 0.247893 0.057753 -0.169309 0.102561 -0.120704 0.012648 -0.131998 -0.031902 -0.229742 0.197940 0.020808 -0.124036 -0.014914 -0.184676 0.105490 -0.210609 -0.105310 -0.188853 0.204988 -0.127862 0.039788 -0.462881 0.328251 0.045111 -0.346932 -0.093474 0.036252 0.225035 -0.132262 0.016435 0.134045 0.127966 0.087189 -0.150345 -0.295501 0.000635 -0.139091 0.012341 0.051340 -0.082108 -0.250077 0.003902 -0.052078 0.013608 0.038552 -0.001891 -0.003571 -0.357799 -0.313030 0.299528 0.021619 0.059307
1 -0.359726 -0.147513 0.361008 -0.331314 0.343904 -0.084079 0.017108 0.298204 0.255948 0.230653 -0.411084 0.107654 0.366085 -0.451737 -0.043140 -0.401542 0.062016 -0.370949 0.383435 0.222280 0.576708 0.396974 0.244192 0.412553 0.180587 -0.316853 0.067360 0.377265 -0.016655 -0.168643 -0.176496 -0.284176 -0.292675 0.034359 -0.028738 -0.321039 0.140598 -0.303439 -0.087962 -0.233404 -0.243793 0.347116 0.352662 0.039630 0.128106 0.141275 -0.153575 -0.117846 0.196508 0.197018 -0.083054 0.222537 0.046880 0.527198 -0.735000 0.201541 0.372105 0.740491 -0.288246 0.293005 -0.205749 0.124340 -0.270004 0.040181 -0.042122 0.254541 -0.198872 0.134804 -0.052625 -0.166560 0.301984 -0.072689 0.152452 0.132603 0.296248 -0.092754 0.258689 0.258713 0.083249 0.561695 -0.422274 -0.483592 -0.355809 -0.289667 0.044907 -0.052478 0.643534 0.143312 -0.009137 0.132363 0.112698 0.074623 -0.218141 0.010894 -0.768650 0.225517 -0.604263 -0.561758 0.433110 0.141863 -0.172947 0.166008 -0.226079 -0.356463 0.054830 0.270722 0.522104 0.520248 -0.303860 -0.085956 0.273253 -0.162582 0.255428 0.423717 -0.321246 0.266829 0.482302 -0.162229 -0.231083 -0.422830 0.256832 -0.465839 0.073880 -0.536609 -0.049900 -0.131354 0.143239 -0.146783
37 -0.272020 -0.067433 0.375175 -0.182578 0.258143 0.051527 0.076833 0.330878 0.313379 0.281525 -0.385489 0.196759 0.361538 -0.584370 -0.006876 -0.272825 -0.049798 -0.370479 0.243496 0.256531 0.565996 0.495698 0.310698 0.480140 0.248342 -0.398037 0.134073 0.262076 -0.016608 -0.159412 -0.057026 -0.478917 -0.249915 -0.153319 0.054257 -0.271573 0.283794 -0.362077 -0.104131 -0.045452 -0.133319 0.516049 0.264035 -0.076384 0.115670 0.162602 -0.104810 0.008537 -0.020061 0.133499 0.100315 0.192841 0.129674 0.450107 -0.659231 0.257278 0.314710 0.596810 -0.232929 0.348267 -0.273997 0.102252 -0.271547 0.082773 -0.013374 0.234285 -0.078012 0.122049 0.085739 -0.020510 0.321500 0.095639 0.059589 0.161744 0.496813 -0.065187 0.174440 0.339545 -0.046942 0.646413 -0.418974 -0.477152 -0.399352 -0.357771 0.087983 0.070151 0.720129 0.222605 -0.127401 0.183630 0.051388 -0.076774 -0.270489 -0.065690 -0.643199 0.144808 -0.614590 -0.661907 0.363402 0.111141 -0.123052 0.006064 -0.326789 -0.273575 0.106160 0.219575 0.610665 0.558431 -0.333517 -0.103813 0.300156 -0.147812 0.277009 0.310200 -0.242831 0.242433 0.422349 -0.314578 -0.219747 -0.425251 0.355527 -0.572179 0.237628 -0.602391 0.041972 -0.117648 0.023419 -0.252029
